<?xml version="1.0"?>
<opencv_storage>
<regression-cascade>
  <stageType>BOOST</stageType>
  <featureType>ICFplus</featureType>
  <octavesNum>1</octavesNum>
  <width>80</width>
  <height>80</height>
  <shrinkage>4</shrinkage>
  <octaves>
    <_>
      <scale>0</scale>
      <weaks>1500</weaks>
      <trees>
        <_>
          <treeThreshold>-9.4773173332214355e-001</treeThreshold>
          <internalNodes>
            1 2 0 1.1500000000000000e+001 0 -1 1 5.2500000000000000e+001
            -2 -3 2 5.5000000000000000e+000</internalNodes>
          <leafValues>
            -9.4773173332214355e-001 -4.2071220278739929e-001
            -3.2484897971153259e-001 6.1802589893341064e-001</leafValues></_>
        <_>
          <treeThreshold>-1.8915382623672485e+000</treeThreshold>
          <internalNodes>
            1 2 3 3.7500000000000000e+001 0 -1 4 1.4500000000000000e+001
            -2 -3 5 5.0000000000000000e-001</internalNodes>
          <leafValues>
            -9.4380646944046021e-001 -5.3078812360763550e-001
            4.3208962678909302e-001 -2.4464273452758789e-001</leafValues></_>
        <_>
          <treeThreshold>-2.5824310779571533e+000</treeThreshold>
          <internalNodes>
            1 2 6 5.5000000000000000e+000 0 -1 7 1.1500000000000000e+001
            -2 -3 8 8.5000000000000000e+000</internalNodes>
          <leafValues>
            -6.9089287519454956e-001 -1.6272696852684021e-001
            4.6543857455253601e-001 -2.3630627989768982e-001</leafValues></_>
        <_>
          <treeThreshold>-2.7689509391784668e+000</treeThreshold>
          <internalNodes>
            1 2 9 5.2500000000000000e+001 0 -1 10
            9.5000000000000000e+000 -2 -3 11 2.5000000000000000e+000</internalNodes>
          <leafValues>
            -1.8651984632015228e-001 4.1583448648452759e-001
            -1.1667244881391525e-001 -6.3429540395736694e-001</leafValues></_>
        <_>
          <treeThreshold>-3.1246130466461182e+000</treeThreshold>
          <internalNodes>
            1 2 12 7.5000000000000000e+000 0 -1 13
            1.2500000000000000e+001 -2 -3 14 2.3500000000000000e+001</internalNodes>
          <leafValues>
            -8.8268172740936279e-001 -3.5037851333618164e-001
            -1.6000585258007050e-001 2.9027673602104187e-001</leafValues></_>
        <_>
          <treeThreshold>-3.4830236434936523e+000</treeThreshold>
          <internalNodes>
            1 2 15 2.5000000000000000e+000 0 -1 16
            3.5000000000000000e+000 -2 -3 17 7.5000000000000000e+000</internalNodes>
          <leafValues>
            -3.6369407176971436e-001 3.1904476881027222e-001
            -4.9954570829868317e-002 -4.8967388272285461e-001</leafValues></_>
        <_>
          <treeThreshold>-3.6087036132812500e+000</treeThreshold>
          <internalNodes>
            1 2 18 3.5000000000000000e+000 0 -1 19
            9.9500000000000000e+001 -2 -3 20 2.7500000000000000e+001</internalNodes>
          <leafValues>
            -3.5813042521476746e-001 -8.2974106073379517e-001
            3.3033084869384766e-001 -1.2567995488643646e-001</leafValues></_>
        <_>
          <treeThreshold>-3.2647693157196045e+000</treeThreshold>
          <internalNodes>
            1 2 21 4.5000000000000000e+000 0 -1 22
            6.5000000000000000e+000 -2 -3 23 9.9500000000000000e+001</internalNodes>
          <leafValues>
            3.4393408894538879e-001 -2.8634464740753174e-001
            6.8960770964622498e-002 -3.7583234906196594e-001</leafValues></_>
        <_>
          <treeThreshold>-3.4905655384063721e+000</treeThreshold>
          <internalNodes>
            1 2 24 2.5000000000000000e+000 0 -1 25
            3.5500000000000000e+001 -2 -3 26 3.5000000000000000e+000</internalNodes>
          <leafValues>
            -5.8237105607986450e-001 2.4722993373870850e-001
            -2.2579617798328400e-001 2.2397223114967346e-001</leafValues></_>
        <_>
          <treeThreshold>-3.4166095256805420e+000</treeThreshold>
          <internalNodes>
            1 2 27 1.4500000000000000e+001 0 -1 28
            1.6500000000000000e+001 -2 -3 29 9.8500000000000000e+001</internalNodes>
          <leafValues>
            -6.8644456565380096e-002 -5.2959203720092773e-001
            3.5548216104507446e-001 -1.2878859043121338e-001</leafValues></_>
        <_>
          <treeThreshold>-3.2895648479461670e+000</treeThreshold>
          <internalNodes>
            1 2 30 2.5500000000000000e+001 0 -1 31
            2.9650000000000000e+002 -2 -3 32 1.6500000000000000e+001</internalNodes>
          <leafValues>
            -1.6188172996044159e-001 -8.9523315429687500e-001
            1.2704460322856903e-001 -3.8144132494926453e-001</leafValues></_>
        <_>
          <treeThreshold>-3.3167965412139893e+000</treeThreshold>
          <internalNodes>
            1 2 33 2.5500000000000000e+001 0 -1 34
            1.3500000000000000e+001 -2 -3 35 5.0000000000000000e-001</internalNodes>
          <leafValues>
            -2.7231687679886818e-002 -4.0191936492919922e-001
            4.6708410978317261e-001 1.0466137900948524e-002</leafValues></_>
        <_>
          <treeThreshold>-3.3178677558898926e+000</treeThreshold>
          <internalNodes>
            1 2 36 5.0000000000000000e-001 0 -1 37
            2.5000000000000000e+000 -2 -3 38 2.0500000000000000e+001</internalNodes>
          <leafValues>
            -1.8399591743946075e-001 -6.7969691753387451e-001
            1.5693259239196777e-001 -3.2139301300048828e-001</leafValues></_>
        <_>
          <treeThreshold>-3.4499192237854004e+000</treeThreshold>
          <internalNodes>
            1 2 39 1.5000000000000000e+000 0 -1 40
            1.2500000000000000e+001 -2 -3 41 4.5000000000000000e+000</internalNodes>
          <leafValues>
            -8.7182052433490753e-002 -6.0770034790039063e-001
            -4.6852612495422363e-001 1.1543428152799606e-001</leafValues></_>
        <_>
          <treeThreshold>-3.4005110263824463e+000</treeThreshold>
          <internalNodes>
            1 2 42 2.0500000000000000e+001 0 -1 43
            2.9500000000000000e+001 -2 -3 44 1.2850000000000000e+002</internalNodes>
          <leafValues>
            1.8135409057140350e-001 -4.8510485887527466e-001
            -5.3299933671951294e-001 4.9407999962568283e-002</leafValues></_>
        <_>
          <treeThreshold>-3.3328642845153809e+000</treeThreshold>
          <internalNodes>
            1 2 45 2.5000000000000000e+000 0 -1 46
            5.1500000000000000e+001 -2 -3 47 1.2500000000000000e+001</internalNodes>
          <leafValues>
            -3.9243865013122559e-001 -8.4196144342422485e-001
            1.5019074082374573e-001 -1.7983874678611755e-001</leafValues></_>
        <_>
          <treeThreshold>-3.1625635623931885e+000</treeThreshold>
          <internalNodes>
            1 2 48 7.5000000000000000e+000 0 -1 49
            2.5000000000000000e+000 -2 -3 50 1.6500000000000000e+001</internalNodes>
          <leafValues>
            1.4238480478525162e-002 -5.3689873218536377e-001
            -2.2931167483329773e-001 2.0145513117313385e-001</leafValues></_>
        <_>
          <treeThreshold>-3.4785606861114502e+000</treeThreshold>
          <internalNodes>
            1 2 51 1.5000000000000000e+000 0 -1 52
            6.5000000000000000e+000 -2 -3 53 1.9500000000000000e+001</internalNodes>
          <leafValues>
            6.3401320949196815e-003 4.8743200302124023e-001
            -3.9712336659431458e-001 -6.4350403845310211e-003</leafValues></_>
        <_>
          <treeThreshold>-3.7073221206665039e+000</treeThreshold>
          <internalNodes>
            1 2 54 8.7500000000000000e+001 0 -1 55
            5.5000000000000000e+000 -2 -3 56 5.8500000000000000e+001</internalNodes>
          <leafValues>
            -4.0656885504722595e-001 3.7164711952209473e-001
            -2.2876141965389252e-001 1.0701274126768112e-001</leafValues></_>
        <_>
          <treeThreshold>-3.3945424556732178e+000</treeThreshold>
          <internalNodes>
            1 2 57 2.9500000000000000e+001 0 -1 58
            1.0500000000000000e+001 -2 -3 59 4.5500000000000000e+001</internalNodes>
          <leafValues>
            -1.9490425288677216e-001 3.1277969479560852e-001
            1.7424689233303070e-001 -3.9701598882675171e-001</leafValues></_>
        <_>
          <treeThreshold>-3.3916621208190918e+000</treeThreshold>
          <internalNodes>
            1 2 60 3.2500000000000000e+001 0 -1 61
            1.0500000000000000e+001 -2 -3 62 5.3500000000000000e+001</internalNodes>
          <leafValues>
            2.8804210014641285e-003 -3.8114580512046814e-001
            -3.6007764935493469e-001 2.5319814682006836e-001</leafValues></_>
        <_>
          <treeThreshold>-3.2753393650054932e+000</treeThreshold>
          <internalNodes>
            1 2 63 1.7500000000000000e+001 0 -1 64
            1.5850000000000000e+002 -2 -3 65 5.2500000000000000e+001</internalNodes>
          <leafValues>
            -1.3176245987415314e-001 -6.0065120458602905e-001
            1.1632271111011505e-001 -3.2071933150291443e-001</leafValues></_>
        <_>
          <treeThreshold>-3.3755114078521729e+000</treeThreshold>
          <internalNodes>
            1 2 66 1.5000000000000000e+000 0 -1 67
            1.7500000000000000e+001 -2 -3 68 1.1500000000000000e+001</internalNodes>
          <leafValues>
            -1.3445004820823669e-002 -7.9255849123001099e-001
            1.7902237176895142e-001 -1.0017195343971252e-001</leafValues></_>
        <_>
          <treeThreshold>-3.2869029045104980e+000</treeThreshold>
          <internalNodes>
            1 2 69 6.4500000000000000e+001 0 -1 70
            1.4500000000000000e+001 -2 -3 71 6.5000000000000000e+000</internalNodes>
          <leafValues>
            8.8608495891094208e-002 -2.8012701869010925e-001
            -1.9536283612251282e-001 2.9049965739250183e-001</leafValues></_>
        <_>
          <treeThreshold>-3.2653660774230957e+000</treeThreshold>
          <internalNodes>
            1 2 72 2.5500000000000000e+001 0 -1 73
            1.8500000000000000e+001 -2 -3 74 2.5000000000000000e+000</internalNodes>
          <leafValues>
            -2.9208317399024963e-001 1.5127785503864288e-001
            2.1536642685532570e-002 -4.4368612766265869e-001</leafValues></_>
        <_>
          <treeThreshold>-3.2091882228851318e+000</treeThreshold>
          <internalNodes>
            1 2 75 4.3500000000000000e+001 0 -1 76 219. -2 -3 77
            6.5000000000000000e+000</internalNodes>
          <leafValues>
            4.2406624555587769e-001 -8.6788868904113770e-001
            -5.7616508007049561e-001 5.6177917867898941e-002</leafValues></_>
        <_>
          <treeThreshold>-3.2352929115295410e+000</treeThreshold>
          <internalNodes>
            1 2 78 5.0000000000000000e-001 0 -1 79
            1.4750000000000000e+002 -2 -3 80 2.5000000000000000e+000</internalNodes>
          <leafValues>
            -2.8277161717414856e-001 -8.0095332860946655e-001
            1.5593861043453217e-001 -1.2413199990987778e-001</leafValues></_>
        <_>
          <treeThreshold>-3.5805056095123291e+000</treeThreshold>
          <internalNodes>
            1 2 81 5.6500000000000000e+001 0 -1 82
            9.5000000000000000e+000 -2 -3 83 1.2050000000000000e+002</internalNodes>
          <leafValues>
            -2.3006338160485029e-003 -3.4521278738975525e-001
            4.6772417426109314e-001 -3.3606741577386856e-002</leafValues></_>
        <_>
          <treeThreshold>-3.5095207691192627e+000</treeThreshold>
          <internalNodes>
            1 2 84 9.5000000000000000e+000 0 -1 85
            5.0000000000000000e-001 -2 -3 86 1.5000000000000000e+000</internalNodes>
          <leafValues>
            1.5399167314171791e-002 -8.8914406299591064e-001
            -4.2702463269233704e-001 7.0984862744808197e-002</leafValues></_>
        <_>
          <treeThreshold>-3.3811502456665039e+000</treeThreshold>
          <internalNodes>
            1 2 87 3.5000000000000000e+000 0 -1 88
            1.5500000000000000e+001 -2 -3 89 3.5500000000000000e+001</internalNodes>
          <leafValues>
            -6.0498929023742676e-001 1.2837059795856476e-001
            6.2410771846771240e-002 -3.6805328726768494e-001</leafValues></_>
        <_>
          <treeThreshold>-3.3565449714660645e+000</treeThreshold>
          <internalNodes>
            1 2 90 7.3500000000000000e+001 0 -1 91
            4.2500000000000000e+001 -2 -3 92 1.9500000000000000e+001</internalNodes>
          <leafValues>
            2.4605143815279007e-002 -3.2708984613418579e-001
            -6.1066263914108276e-001 6.5810811519622803e-001</leafValues></_>
        <_>
          <treeThreshold>-3.3544404506683350e+000</treeThreshold>
          <internalNodes>
            1 2 93 2.2350000000000000e+002 0 -1 94
            6.0250000000000000e+002 -2 -3 95 5.6500000000000000e+001</internalNodes>
          <leafValues>
            2.1045652683824301e-003 6.5090727806091309e-001
            2.4195465445518494e-001 -6.7433673143386841e-001</leafValues></_>
        <_>
          <treeThreshold>-3.0533859729766846e+000</treeThreshold>
          <internalNodes>
            1 2 96 9.7500000000000000e+001 0 -1 97
            3.2500000000000000e+001 -2 -3 98 4.0500000000000000e+001</internalNodes>
          <leafValues>
            1.3689386844635010e-001 -2.4713446199893951e-001
            3.0105447769165039e-001 -4.1725346446037292e-001</leafValues></_>
        <_>
          <treeThreshold>-2.9682736396789551e+000</treeThreshold>
          <internalNodes>
            1 2 99 5.0000000000000000e-001 0 -1 100
            1.6350000000000000e+002 -2 -3 101 1.3500000000000000e+001</internalNodes>
          <leafValues>
            5.5423820018768311e-001 -5.2600067853927612e-001
            -7.7213436365127563e-002 1.9964335858821869e-001</leafValues></_>
        <_>
          <treeThreshold>-3.2498898506164551e+000</treeThreshold>
          <internalNodes>
            1 2 102 9.5000000000000000e+000 0 -1 103
            7.5000000000000000e+000 -2 -3 104 7.5000000000000000e+000</internalNodes>
          <leafValues>
            3.7292483448982239e-001 1.1252399533987045e-002
            -1.3540914282202721e-002 -3.9614716172218323e-001</leafValues></_>
        <_>
          <treeThreshold>-3.1709742546081543e+000</treeThreshold>
          <internalNodes>
            1 2 105 1.1500000000000000e+001 0 -1 106
            1.2500000000000000e+001 -2 -3 107 5.0000000000000000e-001</internalNodes>
          <leafValues>
            2.1856531500816345e-001 -7.1193021535873413e-001
            -3.9061370491981506e-001 7.8915581107139587e-002</leafValues></_>
        <_>
          <treeThreshold>-3.1398825645446777e+000</treeThreshold>
          <internalNodes>
            1 2 108 8.5000000000000000e+000 0 -1 109
            2.6500000000000000e+001 -2 -3 110 3.9500000000000000e+001</internalNodes>
          <leafValues>
            -3.7057468295097351e-001 4.9541085958480835e-001
            -2.6665294170379639e-001 3.1091706827282906e-002</leafValues></_>
        <_>
          <treeThreshold>-3.2202563285827637e+000</treeThreshold>
          <internalNodes>
            1 2 111 1.0500000000000000e+001 0 -1 112
            2.6500000000000000e+001 -2 -3 113 1.4500000000000000e+001</internalNodes>
          <leafValues>
            8.7989464402198792e-002 -4.3540361523628235e-001
            2.3039060831069946e-001 -8.0373793840408325e-002</leafValues></_>
        <_>
          <treeThreshold>-3.2106897830963135e+000</treeThreshold>
          <internalNodes>
            1 2 114 7.2500000000000000e+001 0 -1 115
            1.5000000000000000e+000 -2 -3 116 2.5000000000000000e+000</internalNodes>
          <leafValues>
            9.5298916101455688e-002 -2.1766521036624908e-001
            -6.7474257946014404e-001 2.4257071316242218e-001</leafValues></_>
        <_>
          <treeThreshold>-3.0623488426208496e+000</treeThreshold>
          <internalNodes>
            1 2 117 3.7500000000000000e+001 0 -1 118
            3.2500000000000000e+001 -2 -3 119 4.1500000000000000e+001</internalNodes>
          <leafValues>
            -1.6946005821228027e-001 1.4834097027778625e-001
            -4.8820859193801880e-001 4.3764463067054749e-001</leafValues></_>
        <_>
          <treeThreshold>-3.0753035545349121e+000</treeThreshold>
          <internalNodes>
            1 2 120 5.7500000000000000e+001 0 -1 121
            1.5000000000000000e+000 -2 -3 122 6.0500000000000000e+001</internalNodes>
          <leafValues>
            1.5756030380725861e-001 -9.8687209188938141e-002
            -7.0232319831848145e-001 3.4632551670074463e-001</leafValues></_>
        <_>
          <treeThreshold>-3.2353641986846924e+000</treeThreshold>
          <internalNodes>
            1 2 123 4.5000000000000000e+000 0 -1 124
            4.5000000000000000e+000 -2 -3 125 1.2500000000000000e+001</internalNodes>
          <leafValues>
            2.2826424241065979e-001 -6.7752259969711304e-001
            1.1016781628131866e-001 -1.6006045043468475e-001</leafValues></_>
        <_>
          <treeThreshold>-3.1878709793090820e+000</treeThreshold>
          <internalNodes>
            1 2 126 6.5000000000000000e+000 0 -1 127
            5.0000000000000000e-001 -2 -3 128 2.5500000000000000e+001</internalNodes>
          <leafValues>
            4.8157945275306702e-001 -8.7063211202621460e-001
            -3.8003906607627869e-001 4.7493141144514084e-002</leafValues></_>
        <_>
          <treeThreshold>-2.9660663604736328e+000</treeThreshold>
          <internalNodes>
            1 2 129 1.2500000000000000e+001 0 -1 130
            1.5500000000000000e+001 -2 -3 131 1.0500000000000000e+001</internalNodes>
          <leafValues>
            2.2180460393428802e-001 -1.4662368595600128e-001
            -3.5331407189369202e-001 2.9213087633252144e-002</leafValues></_>
        <_>
          <treeThreshold>-3.0209305286407471e+000</treeThreshold>
          <internalNodes>
            1 2 132 7.5000000000000000e+000 0 -1 133
            2.3500000000000000e+001 -2 -3 134 1.5000000000000000e+000</internalNodes>
          <leafValues>
            1.1409863084554672e-001 -4.2575871944427490e-001
            2.6881593465805054e-001 -5.4864063858985901e-002</leafValues></_>
        <_>
          <treeThreshold>-3.4194209575653076e+000</treeThreshold>
          <internalNodes>
            1 2 135 1.7500000000000000e+001 0 -1 136
            9.9500000000000000e+001 -2 -3 137 1.5500000000000000e+001</internalNodes>
          <leafValues>
            1.0754574090242386e-002 -3.9849048852920532e-001
            -2.0958648622035980e-001 3.7781402468681335e-001</leafValues></_>
        <_>
          <treeThreshold>-3.3678476810455322e+000</treeThreshold>
          <internalNodes>
            1 2 138 8.5000000000000000e+000 0 -1 139
            8.5000000000000000e+000 -2 -3 140 5.5000000000000000e+000</internalNodes>
          <leafValues>
            -4.0633797645568848e-001 2.1456447243690491e-001
            -3.1084775924682617e-001 5.1573220640420914e-002</leafValues></_>
        <_>
          <treeThreshold>-3.0120146274566650e+000</treeThreshold>
          <internalNodes>
            1 2 141 5.7500000000000000e+001 0 -1 142
            2.2450000000000000e+002 -2 -3 143 2.1500000000000000e+001</internalNodes>
          <leafValues>
            -2.1555507555603981e-002 3.5583293437957764e-001
            -5.7697927951812744e-001 -7.1862064301967621e-002</leafValues></_>
        <_>
          <treeThreshold>-3.0204031467437744e+000</treeThreshold>
          <internalNodes>
            1 2 144 5.0000000000000000e-001 0 -1 145
            8.9500000000000000e+001 -2 -3 146 1.2500000000000000e+001</internalNodes>
          <leafValues>
            -6.6115081310272217e-002 4.6653065085411072e-001
            -3.2271200418472290e-001 -8.3884438499808311e-003</leafValues></_>
        <_>
          <treeThreshold>-2.8093552589416504e+000</treeThreshold>
          <internalNodes>
            1 2 147 5.0000000000000000e-001 0 -1 148
            2.5000000000000000e+000 -2 -3 149 8.5000000000000000e+000</internalNodes>
          <leafValues>
            -2.6640918850898743e-001 2.1104788780212402e-001
            -3.0663895606994629e-001 3.9612654596567154e-002</leafValues></_>
        <_>
          <treeThreshold>-2.8348131179809570e+000</treeThreshold>
          <internalNodes>
            1 2 150 3.5000000000000000e+000 0 -1 151
            4.5000000000000000e+000 -2 -3 152 3.5000000000000000e+000</internalNodes>
          <leafValues>
            6.4106398820877075e-001 -1.3357856310904026e-002
            -8.2296341657638550e-001 -2.5457775220274925e-002</leafValues></_>
        <_>
          <treeThreshold>-2.9217708110809326e+000</treeThreshold>
          <internalNodes>
            1 2 153 1.5500000000000000e+001 0 -1 154
            9.5500000000000000e+001 -2 -3 155 5.0000000000000000e-001</internalNodes>
          <leafValues>
            -8.2715088129043579e-001 6.1272823810577393e-001
            1.6958200931549072e-001 -8.6957819759845734e-002</leafValues></_>
        <_>
          <treeThreshold>-2.9496929645538330e+000</treeThreshold>
          <internalNodes>
            1 2 156 4.5000000000000000e+000 0 -1 157
            8.3500000000000000e+001 -2 -3 158 7.5500000000000000e+001</internalNodes>
          <leafValues>
            4.9025233834981918e-002 -6.8415844440460205e-001
            3.0188307166099548e-001 -2.7922185137867928e-002</leafValues></_>
        <_>
          <treeThreshold>-3.0170338153839111e+000</treeThreshold>
          <internalNodes>
            1 2 159 1.1500000000000000e+001 0 -1 160
            3.4500000000000000e+001 -2 -3 161 2.5000000000000000e+000</internalNodes>
          <leafValues>
            -6.2093478441238403e-001 5.0161647796630859e-001
            1.7596949636936188e-001 -6.7340850830078125e-002</leafValues></_>
        <_>
          <treeThreshold>-3.0481746196746826e+000</treeThreshold>
          <internalNodes>
            1 2 162 4.5000000000000000e+000 0 -1 163
            1.8650000000000000e+002 -2 -3 164 5.0000000000000000e-001</internalNodes>
          <leafValues>
            2.0211654901504517e-001 -5.1087063550949097e-001
            3.5873457789421082e-001 -3.1140770763158798e-002</leafValues></_>
        <_>
          <treeThreshold>-3.1218774318695068e+000</treeThreshold>
          <internalNodes>
            1 2 165 1.2500000000000000e+001 0 -1 166
            5.5000000000000000e+000 -2 -3 167 1.5000000000000000e+000</internalNodes>
          <leafValues>
            -7.9327172040939331e-001 -1.6381467878818512e-001
            1.8988594412803650e-001 -7.3702730238437653e-002</leafValues></_>
        <_>
          <treeThreshold>-2.9753730297088623e+000</treeThreshold>
          <internalNodes>
            1 2 168 2.0500000000000000e+001 0 -1 169
            5.0500000000000000e+001 -2 -3 170 1.1250000000000000e+002</internalNodes>
          <leafValues>
            1.4650447666645050e-001 -7.1062505245208740e-001
            -3.5783594846725464e-001 1.1380297690629959e-001</leafValues></_>
        <_>
          <treeThreshold>-2.7565617561340332e+000</treeThreshold>
          <internalNodes>
            1 2 171 2.5000000000000000e+000 0 -1 172
            2.1500000000000000e+001 -2 -3 173 5.0000000000000000e-001</internalNodes>
          <leafValues>
            -1.1361528187990189e-001 -7.9645955562591553e-001
            2.1881112456321716e-001 -5.1275592297315598e-002</leafValues></_>
        <_>
          <treeThreshold>-2.6903939247131348e+000</treeThreshold>
          <internalNodes>
            1 2 174 3.5000000000000000e+000 0 -1 175
            9.5000000000000000e+000 -2 -3 176 1.5000000000000000e+000</internalNodes>
          <leafValues>
            -5.4818749427795410e-001 7.0355075597763062e-001
            -3.8577732443809509e-001 6.6167779266834259e-002</leafValues></_>
        <_>
          <treeThreshold>-2.7028357982635498e+000</treeThreshold>
          <internalNodes>
            1 2 177 1.7650000000000000e+002 0 -1 178
            1.5050000000000000e+002 -2 -3 179 7.2500000000000000e+001</internalNodes>
          <leafValues>
            -1.2441785074770451e-002 4.6383836865425110e-001
            -6.9242298603057861e-001 1.</leafValues></_>
        <_>
          <treeThreshold>-2.7175390720367432e+000</treeThreshold>
          <internalNodes>
            1 2 180 7.6500000000000000e+001 0 -1 181
            8.4500000000000000e+001 -2 -3 182 2.2500000000000000e+001</internalNodes>
          <leafValues>
            -1.4703194610774517e-002 -6.2377786636352539e-001
            5.2717638015747070e-001 -2.5251141190528870e-001</leafValues></_>
        <_>
          <treeThreshold>-2.4982912540435791e+000</treeThreshold>
          <internalNodes>
            1 2 183 4.7500000000000000e+001 0 -1 184
            4.1500000000000000e+001 -2 -3 185 4.1500000000000000e+001</internalNodes>
          <leafValues>
            -8.8923498988151550e-003 4.4981396198272705e-001
            8.1800305843353271e-001 -7.5080931186676025e-001</leafValues></_>
        <_>
          <treeThreshold>-2.3088998794555664e+000</treeThreshold>
          <internalNodes>
            1 2 186 2.5000000000000000e+000 0 -1 187
            3.6500000000000000e+001 -2 -3 188 2.4500000000000000e+001</internalNodes>
          <leafValues>
            1.8939146399497986e-001 -2.6321396231651306e-001
            -2.3577070236206055e-001 1.6272646188735962e-001</leafValues></_>
        <_>
          <treeThreshold>-2.3129980564117432e+000</treeThreshold>
          <internalNodes>
            1 2 189 2.2500000000000000e+001 0 -1 190
            6.5000000000000000e+000 -2 -3 191 6.5000000000000000e+000</internalNodes>
          <leafValues>
            6.4654028415679932e-001 -3.9112362265586853e-001
            -3.0180495977401733e-001 9.5858961343765259e-002</leafValues></_>
        <_>
          <treeThreshold>-2.3581445217132568e+000</treeThreshold>
          <internalNodes>
            1 2 192 1.1500000000000000e+001 0 -1 193
            5.9500000000000000e+001 -2 -3 194 6.5000000000000000e+000</internalNodes>
          <leafValues>
            1.7387819290161133e-001 -2.8669586777687073e-001
            6.8256425857543945e-001 -2.0418593287467957e-001</leafValues></_>
        <_>
          <treeThreshold>-2.2607789039611816e+000</treeThreshold>
          <internalNodes>
            1 2 195 3.5000000000000000e+000 0 -1 196
            1.5500000000000000e+001 -2 -3 197 5.8500000000000000e+001</internalNodes>
          <leafValues>
            -4.1878256201744080e-001 3.9226052165031433e-001
            -5.5153685808181763e-001 9.7365632653236389e-002</leafValues></_>
        <_>
          <treeThreshold>-2.3112552165985107e+000</treeThreshold>
          <internalNodes>
            1 2 198 1.0950000000000000e+002 0 -1 199
            4.5000000000000000e+000 -2 -3 200 1.5500000000000000e+001</internalNodes>
          <leafValues>
            2.1889072656631470e-001 -1.2799982726573944e-001
            -6.6342955827713013e-001 -7.9003818333148956e-002</leafValues></_>
        <_>
          <treeThreshold>-2.3639969825744629e+000</treeThreshold>
          <internalNodes>
            1 2 201 8.5000000000000000e+000 0 -1 202
            2.9500000000000000e+001 -2 -3 203 1.5000000000000000e+000</internalNodes>
          <leafValues>
            1.9143070280551910e-001 -7.9937392473220825e-001
            2.1109691262245178e-001 -5.2741855382919312e-002</leafValues></_>
        <_>
          <treeThreshold>-2.4510145187377930e+000</treeThreshold>
          <internalNodes>
            1 2 204 1.2500000000000000e+001 0 -1 205
            3.6500000000000000e+001 -2 -3 206 3.0500000000000000e+001</internalNodes>
          <leafValues>
            -1.6728141345083714e-003 -3.5638439655303955e-001
            -2.6342833042144775e-001 3.6765271425247192e-001</leafValues></_>
        <_>
          <treeThreshold>-2.3644485473632813e+000</treeThreshold>
          <internalNodes>
            1 2 207 1.3500000000000000e+001 0 -1 208
            2.5000000000000000e+000 -2 -3 209 8.5000000000000000e+000</internalNodes>
          <leafValues>
            -2.5849075987935066e-002 -6.7322230339050293e-001
            -3.3882299065589905e-001 8.6565896868705750e-002</leafValues></_>
        <_>
          <treeThreshold>-2.2168006896972656e+000</treeThreshold>
          <internalNodes>
            1 2 210 1.5000000000000000e+000 0 -1 211
            2.5000000000000000e+000 -2 -3 212 4.7500000000000000e+001</internalNodes>
          <leafValues>
            -1.2433417141437531e-001 2.6955056190490723e-001
            -2.3179434239864349e-001 1.4764782786369324e-001</leafValues></_>
        <_>
          <treeThreshold>-2.1534266471862793e+000</treeThreshold>
          <internalNodes>
            1 2 213 1.2250000000000000e+002 0 -1 214
            2.5000000000000000e+000 -2 -3 215 4.1500000000000000e+001</internalNodes>
          <leafValues>
            -5.5351543426513672e-001 6.3373930752277374e-002
            -5.8406710624694824e-001 4.1455730795860291e-001</leafValues></_>
        <_>
          <treeThreshold>-2.1252162456512451e+000</treeThreshold>
          <internalNodes>
            1 2 216 5.0000000000000000e-001 0 -1 217
            2.3750000000000000e+002 -2 -3 218 5.5500000000000000e+001</internalNodes>
          <leafValues>
            4.0505257248878479e-001 -1.2170387804508209e-001
            1.0371483117341995e-001 -1.9677796959877014e-001</leafValues></_>
        <_>
          <treeThreshold>-2.0786046981811523e+000</treeThreshold>
          <internalNodes>
            1 2 219 8.9500000000000000e+001 0 -1 220
            1.9500000000000000e+001 -2 -3 221 2.9500000000000000e+001</internalNodes>
          <leafValues>
            -7.0386254787445068e-001 7.2021013498306274e-001
            -7.9160004854202271e-001 4.6611435711383820e-002</leafValues></_>
        <_>
          <treeThreshold>-2.3671102523803711e+000</treeThreshold>
          <internalNodes>
            1 2 222 2.5000000000000000e+000 0 -1 223
            4.5000000000000000e+000 -2 -3 224 7.3500000000000000e+001</internalNodes>
          <leafValues>
            7.8830085694789886e-002 -2.8850537538528442e-001
            -6.7585743963718414e-002 3.1912475824356079e-001</leafValues></_>
        <_>
          <treeThreshold>-2.3195803165435791e+000</treeThreshold>
          <internalNodes>
            1 2 225 1.6350000000000000e+002 0 -1 226
            1.0500000000000000e+001 -2 -3 227 77.</internalNodes>
          <leafValues>
            -5.6279802322387695e-001 4.7529824078083038e-002
            -8.0688321590423584e-001 3.1569331884384155e-001</leafValues></_>
        <_>
          <treeThreshold>-2.0095353126525879e+000</treeThreshold>
          <internalNodes>
            1 2 228 5.5000000000000000e+000 0 -1 229
            6.1500000000000000e+001 -2 -3 230 6.5000000000000000e+000</internalNodes>
          <leafValues>
            8.5397973656654358e-002 8.3969360589981079e-001
            9.7414202988147736e-002 -1.6583105921745300e-001</leafValues></_>
        <_>
          <treeThreshold>-1.7867971658706665e+000</treeThreshold>
          <internalNodes>
            1 2 231 1.6500000000000000e+001 0 -1 232
            8.5000000000000000e+000 -2 -3 233 1.0500000000000000e+001</internalNodes>
          <leafValues>
            3.3091631531715393e-001 -1.8556447699666023e-002
            4.9219369888305664e-001 -1.6144569218158722e-001</leafValues></_>
        <_>
          <treeThreshold>-1.8925309181213379e+000</treeThreshold>
          <internalNodes>
            1 2 234 2.4950000000000000e+002 0 -1 235
            3.5000000000000000e+000 -2 -3 236 8.6500000000000000e+001</internalNodes>
          <leafValues>
            1.6690009832382202e-001 -1.7016680538654327e-001
            2.9490798711776733e-001 -3.8070765137672424e-001</leafValues></_>
        <_>
          <treeThreshold>-1.7976922988891602e+000</treeThreshold>
          <internalNodes>
            1 2 237 3.5000000000000000e+000 0 -1 238
            4.3500000000000000e+001 -2 -3 239 4.2500000000000000e+001</internalNodes>
          <leafValues>
            -5.1683557033538818e-001 1.2135902792215347e-001
            -2.6335281133651733e-001 1.2180696427822113e-001</leafValues></_>
        <_>
          <treeThreshold>-1.7737814188003540e+000</treeThreshold>
          <internalNodes>
            1 2 240 2.7500000000000000e+001 0 -1 241
            1.4500000000000000e+001 -2 -3 242 4.5000000000000000e+000</internalNodes>
          <leafValues>
            -2.1258465945720673e-001 6.0160225629806519e-001
            -4.0408354997634888e-001 1.2902176240459085e-003</leafValues></_>
        <_>
          <treeThreshold>-1.7911924123764038e+000</treeThreshold>
          <internalNodes>
            1 2 243 9.3500000000000000e+001 0 -1 244
            1.0500000000000000e+001 -2 -3 245 2.3500000000000000e+001</internalNodes>
          <leafValues>
            -4.7812628746032715e-001 4.2937859892845154e-001
            -3.9332860708236694e-001 1.3879783451557159e-002</leafValues></_>
        <_>
          <treeThreshold>-1.7970991134643555e+000</treeThreshold>
          <internalNodes>
            1 2 246 1.5500000000000000e+001 0 -1 247
            2.5500000000000000e+001 -2 -3 248 2.1500000000000000e+001</internalNodes>
          <leafValues>
            -5.9066950343549252e-003 3.5274320840835571e-001
            -6.1347945593297482e-003 -4.1000476479530334e-001</leafValues></_>
        <_>
          <treeThreshold>-1.7651567459106445e+000</treeThreshold>
          <internalNodes>
            1 2 249 6.4500000000000000e+001 0 -1 250
            2.6500000000000000e+001 -2 -3 251 1.7500000000000000e+001</internalNodes>
          <leafValues>
            -6.1852011829614639e-002 1.9392080605030060e-001
            -7.7251869440078735e-001 2.0737259089946747e-001</leafValues></_>
        <_>
          <treeThreshold>-1.8106031417846680e+000</treeThreshold>
          <internalNodes>
            1 2 252 2.0500000000000000e+001 0 -1 253
            4.5000000000000000e+000 -2 -3 254 5.0000000000000000e-001</internalNodes>
          <leafValues>
            3.2333397865295410e-001 -2.8117686510086060e-001
            2.8132504224777222e-001 -4.5446440577507019e-002</leafValues></_>
        <_>
          <treeThreshold>-1.8018021583557129e+000</treeThreshold>
          <internalNodes>
            1 2 255 4.3500000000000000e+001 0 -1 256
            5.0500000000000000e+001 -2 -3 257 2.5000000000000000e+000</internalNodes>
          <leafValues>
            2.1339239180088043e-001 -6.6996192932128906e-001
            -3.5792928934097290e-001 8.8009517639875412e-003</leafValues></_>
        <_>
          <treeThreshold>-1.8090435266494751e+000</treeThreshold>
          <internalNodes>
            1 2 258 2.3500000000000000e+001 0 -1 259
            3.5000000000000000e+000 -2 -3 260 6.5000000000000000e+000</internalNodes>
          <leafValues>
            2.9245728254318237e-001 -5.8678448200225830e-001
            4.3769386410713196e-001 -7.2413319721817970e-003</leafValues></_>
        <_>
          <treeThreshold>-1.9900912046432495e+000</treeThreshold>
          <internalNodes>
            1 2 261 2.5500000000000000e+001 0 -1 262
            7.5000000000000000e+000 -2 -3 263 8.5000000000000000e+000</internalNodes>
          <leafValues>
            -7.1267187595367432e-003 -3.6306217312812805e-001
            -2.1655291318893433e-001 2.2632198035717010e-001</leafValues></_>
        <_>
          <treeThreshold>-1.9941622018814087e+000</treeThreshold>
          <internalNodes>
            1 2 264 1.0500000000000000e+001 0 -1 265
            1.8500000000000000e+001 -2 -3 266 1.7500000000000000e+001</internalNodes>
          <leafValues>
            3.1962087750434875e-001 -1.7799188196659088e-001
            -2.6606959104537964e-001 2.6678732037544250e-001</leafValues></_>
        <_>
          <treeThreshold>-1.7185661792755127e+000</treeThreshold>
          <internalNodes>
            1 2 267 1.8500000000000000e+001 0 -1 268
            1.5000000000000000e+000 -2 -3 269 4.6500000000000000e+001</internalNodes>
          <leafValues>
            3.2665681838989258e-001 -5.8996230363845825e-002
            4.7376584261655807e-003 -3.5274416208267212e-001</leafValues></_>
        <_>
          <treeThreshold>-1.6221024990081787e+000</treeThreshold>
          <internalNodes>
            1 2 270 1.1500000000000000e+001 0 -1 271
            4.5000000000000000e+000 -2 -3 272 3.5500000000000000e+001</internalNodes>
          <leafValues>
            1.3334948569536209e-002 -7.1637725830078125e-001
            9.6463732421398163e-002 -2.6414364576339722e-001</leafValues></_>
        <_>
          <treeThreshold>-1.6695247888565063e+000</treeThreshold>
          <internalNodes>
            1 2 273 1.3500000000000000e+001 0 -1 274 103. -2 -3 275
            1.8500000000000000e+001</internalNodes>
          <leafValues>
            -8.0777472257614136e-001 8.8167494535446167e-001
            2.2073882818222046e-001 -4.7422252595424652e-002</leafValues></_>
        <_>
          <treeThreshold>-1.8173099756240845e+000</treeThreshold>
          <internalNodes>
            1 2 276 8.7500000000000000e+001 0 -1 277
            1.1550000000000000e+002 -2 -3 278 3.4500000000000000e+001</internalNodes>
          <leafValues>
            -4.4443055987358093e-002 -4.4601646065711975e-001
            -1.4778527617454529e-001 2.9411584138870239e-001</leafValues></_>
        <_>
          <treeThreshold>-1.7179732322692871e+000</treeThreshold>
          <internalNodes>
            1 2 279 6.4500000000000000e+001 0 -1 280
            1.5500000000000000e+001 -2 -3 281 7.1500000000000000e+001</internalNodes>
          <leafValues>
            -5.5374115705490112e-001 9.9336825311183929e-002
            -5.0069415569305420e-001 6.1131902039051056e-002</leafValues></_>
        <_>
          <treeThreshold>-2.0703644752502441e+000</treeThreshold>
          <internalNodes>
            1 2 282 2.8500000000000000e+001 0 -1 283
            1.3500000000000000e+001 -2 -3 284 2.5500000000000000e+001</internalNodes>
          <leafValues>
            1.2981045246124268e-001 -1.8643029034137726e-001
            2.1072781085968018e-001 -3.5239133238792419e-001</leafValues></_>
        <_>
          <treeThreshold>-1.9273599386215210e+000</treeThreshold>
          <internalNodes>
            1 2 285 6.7500000000000000e+001 0 -1 286
            1.1150000000000000e+002 -2 -3 287 2.5500000000000000e+001</internalNodes>
          <leafValues>
            -2.6466187834739685e-001 2.0469170808792114e-001
            -4.9625229835510254e-001 1.4300458133220673e-001</leafValues></_>
        <_>
          <treeThreshold>-1.9235332012176514e+000</treeThreshold>
          <internalNodes>
            1 2 288 1.3500000000000000e+001 0 -1 289
            5.7500000000000000e+001 -2 -3 290 3.5500000000000000e+001</internalNodes>
          <leafValues>
            6.5901732444763184e-001 -4.2559692263603210e-001
            3.8267434574663639e-003 -3.9189285039901733e-001</leafValues></_>
        <_>
          <treeThreshold>-1.7519766092300415e+000</treeThreshold>
          <internalNodes>
            1 2 291 3.5000000000000000e+000 0 -1 292
            6.1500000000000000e+001 -2 -3 293 5.0000000000000000e-001</internalNodes>
          <leafValues>
            -5.9037518501281738e-001 4.4001263380050659e-001
            1.7155659198760986e-001 -6.8781860172748566e-002</leafValues></_>
        <_>
          <treeThreshold>-1.6902037858963013e+000</treeThreshold>
          <internalNodes>
            1 2 294 3.2500000000000000e+001 0 -1 295
            4.2500000000000000e+001 -2 -3 296 1.7500000000000000e+001</internalNodes>
          <leafValues>
            5.1810270547866821e-001 -7.3668974637985229e-001
            -3.0417621135711670e-001 6.1772774904966354e-002</leafValues></_>
        <_>
          <treeThreshold>-1.5296511650085449e+000</treeThreshold>
          <internalNodes>
            1 2 297 7.0500000000000000e+001 0 -1 298
            7.5000000000000000e+000 -2 -3 299 2.9500000000000000e+001</internalNodes>
          <leafValues>
            5.3371953964233398e-001 -2.5866714119911194e-001
            -1.3182315975427628e-002 -4.3414273858070374e-001</leafValues></_>
        <_>
          <treeThreshold>-1.5280640125274658e+000</treeThreshold>
          <internalNodes>
            1 2 300 3.0500000000000000e+001 0 -1 301
            4.2500000000000000e+001 -2 -3 302 3.5500000000000000e+001</internalNodes>
          <leafValues>
            -2.9769098758697510e-001 3.5737797617912292e-001
            4.2326113581657410e-001 1.5871668001636863e-003</leafValues></_>
        <_>
          <treeThreshold>-1.6611826419830322e+000</treeThreshold>
          <internalNodes>
            1 2 303 1.3500000000000000e+001 0 -1 304
            2.1500000000000000e+001 -2 -3 305 2.5500000000000000e+001</internalNodes>
          <leafValues>
            -3.1873592734336853e-001 3.1688141822814941e-001
            2.0226775109767914e-001 -2.3555764555931091e-001</leafValues></_>
        <_>
          <treeThreshold>-1.6613297462463379e+000</treeThreshold>
          <internalNodes>
            1 2 306 1.3350000000000000e+002 0 -1 307
            3.7350000000000000e+002 -2 -3 308 7.5000000000000000e+000</internalNodes>
          <leafValues>
            -1.4705142530146986e-004 -3.5105830430984497e-001
            -5.9492146968841553e-001 3.9980617165565491e-001</leafValues></_>
        <_>
          <treeThreshold>-1.5931009054183960e+000</treeThreshold>
          <internalNodes>
            1 2 309 2.0500000000000000e+001 0 -1 310
            2.5000000000000000e+000 -2 -3 311 1.2500000000000000e+001</internalNodes>
          <leafValues>
            6.8228833377361298e-002 -2.2404952347278595e-001
            2.0698264241218567e-002 4.7472015023231506e-001</leafValues></_>
        <_>
          <treeThreshold>-1.5339076519012451e+000</treeThreshold>
          <internalNodes>
            1 2 312 1.5000000000000000e+000 0 -1 313
            6.8500000000000000e+001 -2 -3 314 2.0500000000000000e+001</internalNodes>
          <leafValues>
            -5.1140254735946655e-001 4.9887773394584656e-001
            -6.9520312547683716e-001 5.9193279594182968e-002</leafValues></_>
        <_>
          <treeThreshold>-1.3099007606506348e+000</treeThreshold>
          <internalNodes>
            1 2 315 5.9500000000000000e+001 0 -1 316
            6.0500000000000000e+001 -2 -3 317 9.5000000000000000e+000</internalNodes>
          <leafValues>
            2.2400687634944916e-001 -7.0332062244415283e-001
            -5.1806531846523285e-003 -4.0758895874023438e-001</leafValues></_>
        <_>
          <treeThreshold>-1.2251371145248413e+000</treeThreshold>
          <internalNodes>
            1 2 318 4.5000000000000000e+000 0 -1 319
            3.0500000000000000e+001 -2 -3 320 1.5000000000000000e+000</internalNodes>
          <leafValues>
            -5.3939348459243774e-001 7.2844751179218292e-002
            -7.4532669782638550e-001 8.4763623774051666e-002</leafValues></_>
        <_>
          <treeThreshold>-1.2069877386093140e+000</treeThreshold>
          <internalNodes>
            1 2 321 5.0000000000000000e-001 0 -1 322
            1.0750000000000000e+002 -2 -3 323 8.5000000000000000e+000</internalNodes>
          <leafValues>
            2.0861555635929108e-001 -3.6520868539810181e-001
            3.3617220818996429e-002 -2.9357880353927612e-001</leafValues></_>
        <_>
          <treeThreshold>-1.4379748106002808e+000</treeThreshold>
          <internalNodes>
            1 2 324 1.4500000000000000e+001 0 -1 325
            6.5000000000000000e+000 -2 -3 326 3.5000000000000000e+000</internalNodes>
          <leafValues>
            1.2965552508831024e-001 -2.4645489454269409e-001
            -1.0731689631938934e-001 2.7632069587707520e-001</leafValues></_>
        <_>
          <treeThreshold>-1.3775414228439331e+000</treeThreshold>
          <internalNodes>
            1 2 327 6.5000000000000000e+000 0 -1 328
            1.4450000000000000e+002 -2 -3 329 8.5500000000000000e+001</internalNodes>
          <leafValues>
            -3.7417855858802795e-001 2.8686070442199707e-001
            4.0193462371826172e-001 8.1335343420505524e-003</leafValues></_>
        <_>
          <treeThreshold>-1.2222293615341187e+000</treeThreshold>
          <internalNodes>
            1 2 330 3.5000000000000000e+000 0 -1 331
            1.2500000000000000e+001 -2 -3 332 4.5000000000000000e+000</internalNodes>
          <leafValues>
            1.9352972507476807e-001 -8.8708335161209106e-001
            1.5531200170516968e-001 -8.2632787525653839e-002</leafValues></_>
        <_>
          <treeThreshold>-1.1005610227584839e+000</treeThreshold>
          <internalNodes>
            1 2 333 1.3500000000000000e+001 0 -1 334
            4.5000000000000000e+000 -2 -3 335 5.5000000000000000e+000</internalNodes>
          <leafValues>
            3.1210899353027344e-001 -3.3332628011703491e-001
            -4.6524089574813843e-001 1.2166836857795715e-001</leafValues></_>
        <_>
          <treeThreshold>-1.0547066926956177e+000</treeThreshold>
          <internalNodes>
            1 2 336 8.2500000000000000e+001 0 -1 337
            1.5000000000000000e+000 -2 -3 338 64.</internalNodes>
          <leafValues>
            -5.4346990585327148e-001 4.5854296535253525e-002
            -7.3944407701492310e-001 4.6565970778465271e-001</leafValues></_>
        <_>
          <treeThreshold>-1.1592482328414917e+000</treeThreshold>
          <internalNodes>
            1 2 339 3.7500000000000000e+001 0 -1 340
            1.2550000000000000e+002 -2 -3 341 9.6500000000000000e+001</internalNodes>
          <leafValues>
            1.4069363474845886e-001 -4.3439874053001404e-001
            -4.1620674729347229e-001 6.1052571982145309e-002</leafValues></_>
        <_>
          <treeThreshold>-1.2315222024917603e+000</treeThreshold>
          <internalNodes>
            1 2 342 5.4500000000000000e+001 0 -1 343
            5.1500000000000000e+001 -2 -3 344 2.4500000000000000e+001</internalNodes>
          <leafValues>
            -7.2274006903171539e-002 2.7173003554344177e-001
            -2.7311715483665466e-001 7.2330647706985474e-001</leafValues></_>
        <_>
          <treeThreshold>-1.0833411216735840e+000</treeThreshold>
          <internalNodes>
            1 2 345 9.5000000000000000e+000 0 -1 346
            1.5500000000000000e+001 -2 -3 347 1.5000000000000000e+000</internalNodes>
          <leafValues>
            1.4818112552165985e-001 -2.6437768340110779e-001
            2.2052565217018127e-001 -3.0400434136390686e-001</leafValues></_>
        <_>
          <treeThreshold>-9.8906701803207397e-001</treeThreshold>
          <internalNodes>
            1 2 348 1.1500000000000000e+001 0 -1 349
            5.0000000000000000e-001 -2 -3 350 1.1500000000000000e+001</internalNodes>
          <leafValues>
            3.5391914844512939e-001 -3.3298236131668091e-001
            -5.5560183525085449e-001 9.4274081289768219e-002</leafValues></_>
        <_>
          <treeThreshold>-1.1341949701309204e+000</treeThreshold>
          <internalNodes>
            1 2 351 2.4050000000000000e+002 0 -1 352
            2.9500000000000000e+001 -2 -3 353 99.</internalNodes>
          <leafValues>
            3.7893682718276978e-002 -2.1521361172199249e-001
            7.7959597110748291e-001 -9.5744335651397705e-001</leafValues></_>
        <_>
          <treeThreshold>-8.5088914632797241e-001</treeThreshold>
          <internalNodes>
            1 2 354 1.4500000000000000e+001 0 -1 355
            5.0000000000000000e-001 -2 -3 356 9.2500000000000000e+001</internalNodes>
          <leafValues>
            1.0422458499670029e-001 -5.4940682649612427e-001
            3.3767554163932800e-001 -8.3374986425042152e-003</leafValues></_>
        <_>
          <treeThreshold>-8.0388182401657104e-001</treeThreshold>
          <internalNodes>
            1 2 357 7.1500000000000000e+001 0 -1 358
            4.1500000000000000e+001 -2 -3 359 2.5000000000000000e+000</internalNodes>
          <leafValues>
            -6.0988817363977432e-002 -6.0126334428787231e-001
            -1.6818228363990784e-001 1.7721687257289886e-001</leafValues></_>
        <_>
          <treeThreshold>-8.3829295635223389e-001</treeThreshold>
          <internalNodes>
            1 2 360 5.8500000000000000e+001 0 -1 361
            9.5000000000000000e+000 -2 -3 362 2.1050000000000000e+002</internalNodes>
          <leafValues>
            9.2982463538646698e-002 -2.1899038553237915e-001
            4.2436936497688293e-001 1.1139799840748310e-002</leafValues></_>
        <_>
          <treeThreshold>-9.1119718551635742e-001</treeThreshold>
          <internalNodes>
            1 2 363 7.3500000000000000e+001 0 -1 364
            1.6050000000000000e+002 -2 -3 365 1.4500000000000000e+001</internalNodes>
          <leafValues>
            2.2726481780409813e-002 -3.3050736784934998e-001
            8.5439747571945190e-001 -9.3739271163940430e-001</leafValues></_>
        <_>
          <treeThreshold>-7.7207696437835693e-001</treeThreshold>
          <internalNodes>
            1 2 366 2.5500000000000000e+001 0 -1 367
            1.5000000000000000e+000 -2 -3 368 9.5000000000000000e+000</internalNodes>
          <leafValues>
            6.5253949165344238e-001 -5.5817067623138428e-001
            1.3912017643451691e-001 -1.1563674360513687e-001</leafValues></_>
        <_>
          <treeThreshold>-7.9110437631607056e-001</treeThreshold>
          <internalNodes>
            1 2 369 1.1450000000000000e+002 0 -1 370
            5.5500000000000000e+001 -2 -3 371 1.0950000000000000e+002</internalNodes>
          <leafValues>
            -1.9027402624487877e-002 -6.4275723695755005e-001
            5.3387594223022461e-001 -5.5723899602890015e-001</leafValues></_>
        <_>
          <treeThreshold>-6.3231241703033447e-001</treeThreshold>
          <internalNodes>
            1 2 372 5.2500000000000000e+001 0 -1 373
            7.5000000000000000e+000 -2 -3 374 28.</internalNodes>
          <leafValues>
            6.3161261379718781e-002 -1.7874798178672791e-001
            8.9326483011245728e-001 -7.6356571912765503e-001</leafValues></_>
        <_>
          <treeThreshold>-8.2962787151336670e-001</treeThreshold>
          <internalNodes>
            1 2 375 1.2500000000000000e+001 0 -1 376
            2.5500000000000000e+001 -2 -3 377 4.5000000000000000e+000</internalNodes>
          <leafValues>
            -4.8098513484001160e-001 4.2275413870811462e-001
            -7.3878413438796997e-001 6.4807161688804626e-002</leafValues></_>
        <_>
          <treeThreshold>-6.6354161500930786e-001</treeThreshold>
          <internalNodes>
            1 2 378 1.1500000000000000e+001 0 -1 379
            4.0500000000000000e+001 -2 -3 380 3.2500000000000000e+001</internalNodes>
          <leafValues>
            1.6608630120754242e-001 -2.5684350728988647e-001
            -3.5697329044342041e-001 6.6313177347183228e-002</leafValues></_>
        <_>
          <treeThreshold>-5.0943946838378906e-001</treeThreshold>
          <internalNodes>
            1 2 381 1.7500000000000000e+001 0 -1 382
            5.0000000000000000e-001 -2 -3 383 5.0000000000000000e-001</internalNodes>
          <leafValues>
            9.5622234046459198e-002 -2.4748016893863678e-001
            -4.2538824677467346e-001 2.0899762213230133e-001</leafValues></_>
        <_>
          <treeThreshold>-6.2414634227752686e-001</treeThreshold>
          <internalNodes>
            1 2 384 2.7500000000000000e+001 0 -1 385
            4.2500000000000000e+001 -2 -3 386 1.2500000000000000e+001</internalNodes>
          <leafValues>
            2.1692821756005287e-002 4.5912346243858337e-001
            -4.9568703770637512e-001 4.8401713371276855e-002</leafValues></_>
        <_>
          <treeThreshold>-6.9159001111984253e-001</treeThreshold>
          <internalNodes>
            1 2 387 2.7500000000000000e+001 0 -1 388
            4.9500000000000000e+001 -2 -3 389 8.5000000000000000e+000</internalNodes>
          <leafValues>
            -6.1127994209527969e-002 -6.7664456367492676e-001
            -2.9203695058822632e-001 1.2298182398080826e-001</leafValues></_>
        <_>
          <treeThreshold>-5.8635967969894409e-001</treeThreshold>
          <internalNodes>
            1 2 390 2.2450000000000000e+002 0 -1 391
            4.8500000000000000e+001 -2 -3 392 2.5000000000000000e+000</internalNodes>
          <leafValues>
            -3.5450318455696106e-001 1.5393802523612976e-001
            5.7946547865867615e-002 -3.2421550154685974e-001</leafValues></_>
        <_>
          <treeThreshold>-5.9494608640670776e-001</treeThreshold>
          <internalNodes>
            1 2 393 5.0000000000000000e-001 0 -1 394
            1.0050000000000000e+002 -2 -3 395 2.6500000000000000e+001</internalNodes>
          <leafValues>
            3.9554664492607117e-001 -2.1533539891242981e-001
            -1.2145897746086121e-001 3.0165472626686096e-001</leafValues></_>
        <_>
          <treeThreshold>-5.4970580339431763e-001</treeThreshold>
          <internalNodes>
            1 2 396 1.4500000000000000e+001 0 -1 397 162. -2 -3 398
            3.9500000000000000e+001</internalNodes>
          <leafValues>
            -9.0132170915603638e-001 6.8280231952667236e-001
            4.5240283012390137e-002 -4.9665442109107971e-001</leafValues></_>
        <_>
          <treeThreshold>-5.5508893728256226e-001</treeThreshold>
          <internalNodes>
            1 2 399 1.4350000000000000e+002 0 -1 400 190. -2 -3 401 47.</internalNodes>
          <leafValues>
            -5.3831376135349274e-003 -5.9069812297821045e-001
            -9.0776181221008301e-001 7.0405882596969604e-001</leafValues></_>
        <_>
          <treeThreshold>-5.9236091375350952e-001</treeThreshold>
          <internalNodes>
            1 2 402 6.5000000000000000e+000 0 -1 403
            9.2500000000000000e+001 -2 -3 404 3.9500000000000000e+001</internalNodes>
          <leafValues>
            -2.0849573612213135e-001 6.3340419530868530e-001
            -1.2343522161245346e-001 1.9300360977649689e-001</leafValues></_>
        <_>
          <treeThreshold>-5.2028173208236694e-001</treeThreshold>
          <internalNodes>
            1 2 405 1.2450000000000000e+002 0 -1 406
            5.8150000000000000e+002 -2 -3 407 8.2500000000000000e+001</internalNodes>
          <leafValues>
            1.5414780378341675e-001 7.7930694818496704e-001
            -2.3184520006179810e-001 7.2079159319400787e-002</leafValues></_>
        <_>
          <treeThreshold>-4.8060679435729980e-001</treeThreshold>
          <internalNodes>
            1 2 408 7.8500000000000000e+001 0 -1 409
            2.5500000000000000e+001 -2 -3 410 8.5000000000000000e+000</internalNodes>
          <leafValues>
            -1.7751298844814301e-001 3.1331256031990051e-001
            3.9674971252679825e-002 -2.6010295748710632e-001</leafValues></_>
        <_>
          <treeThreshold>-5.4947608709335327e-001</treeThreshold>
          <internalNodes>
            1 2 411 3.5000000000000000e+000 0 -1 412
            5.5000000000000000e+000 -2 -3 413 1.3500000000000000e+001</internalNodes>
          <leafValues>
            7.3592655360698700e-002 -3.6242115497589111e-001
            -1.5197910368442535e-001 1.6692677140235901e-001</leafValues></_>
        <_>
          <treeThreshold>-6.3266766071319580e-001</treeThreshold>
          <internalNodes>
            1 2 414 8.8500000000000000e+001 0 -1 415
            1.6500000000000000e+001 -2 -3 416 3.5500000000000000e+001</internalNodes>
          <leafValues>
            1.6779264807701111e-001 -8.3191551268100739e-002
            -7.8578877449035645e-001 -9.7098343074321747e-002</leafValues></_>
        <_>
          <treeThreshold>-4.8864999413490295e-001</treeThreshold>
          <internalNodes>
            1 2 417 3.7050000000000000e+002 0 -1 418
            1.3550000000000000e+002 -2 -3 419 9.9500000000000000e+001</internalNodes>
          <leafValues>
            -2.8358843177556992e-002 3.5101291537284851e-001
            -8.6676305532455444e-001 9.1306287050247192e-001</leafValues></_>
        <_>
          <treeThreshold>-4.2861318588256836e-001</treeThreshold>
          <internalNodes>
            1 2 420 1.0500000000000000e+001 0 -1 421
            4.9500000000000000e+001 -2 -3 422 1.2500000000000000e+001</internalNodes>
          <leafValues>
            -7.4682879447937012e-001 6.0036804527044296e-002
            -6.0167837142944336e-001 4.0207244455814362e-002</leafValues></_>
        <_>
          <treeThreshold>-5.2577674388885498e-001</treeThreshold>
          <internalNodes>
            1 2 423 3.6500000000000000e+001 0 -1 424
            7.5000000000000000e+000 -2 -3 425 3.7500000000000000e+001</internalNodes>
          <leafValues>
            -9.3563550710678101e-001 6.3892394304275513e-001
            -2.0486077666282654e-001 3.9207056164741516e-002</leafValues></_>
        <_>
          <treeThreshold>-3.6486119031906128e-001</treeThreshold>
          <internalNodes>
            1 2 426 3.0500000000000000e+001 0 -1 427
            3.5000000000000000e+000 -2 -3 428 8.5000000000000000e+000</internalNodes>
          <leafValues>
            -1.5174463391304016e-001 1.6091552376747131e-001
            4.2190563678741455e-001 -2.8555396199226379e-001</leafValues></_>
        <_>
          <treeThreshold>-3.3097252249717712e-001</treeThreshold>
          <internalNodes>
            1 2 429 2.5000000000000000e+000 0 -1 430
            3.8500000000000000e+001 -2 -3 431 5.0000000000000000e-001</internalNodes>
          <leafValues>
            -5.5536401271820068e-001 5.7289272546768188e-001
            2.1791812777519226e-001 -4.3419945985078812e-002</leafValues></_>
        <_>
          <treeThreshold>-4.5871418714523315e-001</treeThreshold>
          <internalNodes>
            1 2 432 4.2500000000000000e+001 0 -1 433
            6.9500000000000000e+001 -2 -3 434 30.</internalNodes>
          <leafValues>
            -1.2774166464805603e-001 1.1706326901912689e-001
            5.6455630064010620e-001 -7.2724193334579468e-001</leafValues></_>
        <_>
          <treeThreshold>-5.4258483648300171e-001</treeThreshold>
          <internalNodes>
            1 2 435 1.2500000000000000e+001 0 -1 436
            3.8500000000000000e+001 -2 -3 437 8.5000000000000000e+000</internalNodes>
          <leafValues>
            6.6701382398605347e-002 6.6925841569900513e-001
            6.2579825520515442e-002 -2.7495732903480530e-001</leafValues></_>
        <_>
          <treeThreshold>-5.4577422142028809e-001</treeThreshold>
          <internalNodes>
            1 2 438 3.6500000000000000e+001 0 -1 439
            1.1850000000000000e+002 -2 -3 440 6.5000000000000000e+000</internalNodes>
          <leafValues>
            -3.1893874984234571e-003 4.3039262294769287e-001
            -6.7192137241363525e-001 4.7526556253433228e-001</leafValues></_>
        <_>
          <treeThreshold>-3.6742472648620605e-001</treeThreshold>
          <internalNodes>
            1 2 441 5.5000000000000000e+000 0 -1 442
            1.7500000000000000e+001 -2 -3 443 1.4500000000000000e+001</internalNodes>
          <leafValues>
            -1.5469431877136230e-001 2.0214127004146576e-001
            -3.7058982253074646e-001 1.3098772615194321e-002</leafValues></_>
        <_>
          <treeThreshold>-3.3729299902915955e-001</treeThreshold>
          <internalNodes>
            1 2 444 1.6150000000000000e+002 0 -1 445
            1.1500000000000000e+001 -2 -3 446 2.5000000000000000e+000</internalNodes>
          <leafValues>
            6.6744017601013184e-001 -3.7765499949455261e-001
            -4.1550695896148682e-001 6.3399826176464558e-003</leafValues></_>
        <_>
          <treeThreshold>-2.7265864610671997e-001</treeThreshold>
          <internalNodes>
            1 2 447 3.5000000000000000e+000 0 -1 448
            8.5000000000000000e+000 -2 -3 449 9.5000000000000000e+000</internalNodes>
          <leafValues>
            8.9044891297817230e-002 -6.5536463260650635e-001
            -4.3301472067832947e-001 6.4634345471858978e-002</leafValues></_>
        <_>
          <treeThreshold>-5.9223085641860962e-001</treeThreshold>
          <internalNodes>
            1 2 450 1.2850000000000000e+002 0 -1 451
            1.7500000000000000e+001 -2 -3 452 2.1350000000000000e+002</internalNodes>
          <leafValues>
            8.2182168960571289e-002 -3.1957224011421204e-001
            -7.2144716978073120e-001 3.0628882348537445e-002</leafValues></_>
        <_>
          <treeThreshold>-6.9186335802078247e-001</treeThreshold>
          <internalNodes>
            1 2 453 5.0000000000000000e-001 0 -1 454
            7.5000000000000000e+000 -2 -3 455 1.0500000000000000e+001</internalNodes>
          <leafValues>
            2.9195484519004822e-001 -4.2287573218345642e-001
            5.4217451810836792e-001 -9.9632486701011658e-002</leafValues></_>
        <_>
          <treeThreshold>-5.3760790824890137e-001</treeThreshold>
          <internalNodes>
            1 2 456 2.2500000000000000e+001 0 -1 457
            6.4500000000000000e+001 -2 -3 458 2.5000000000000000e+000</internalNodes>
          <leafValues>
            -4.2229193449020386e-001 4.7588786482810974e-001
            1.5425547957420349e-001 -9.8641522228717804e-002</leafValues></_>
        <_>
          <treeThreshold>-5.8953547477722168e-001</treeThreshold>
          <internalNodes>
            1 2 459 5.0000000000000000e-001 0 -1 460
            2.5000000000000000e+000 -2 -3 461 3.2500000000000000e+001</internalNodes>
          <leafValues>
            8.8695198297500610e-001 -8.9869892597198486e-001
            2.2695301473140717e-001 -5.1927603781223297e-002</leafValues></_>
        <_>
          <treeThreshold>-5.5498522520065308e-001</treeThreshold>
          <internalNodes>
            1 2 462 2.2500000000000000e+001 0 -1 463
            1.3500000000000000e+001 -2 -3 464 5.5500000000000000e+001</internalNodes>
          <leafValues>
            8.3214974403381348e-001 -7.9044282436370850e-001
            3.4550230950117111e-002 -6.2686520814895630e-001</leafValues></_>
        <_>
          <treeThreshold>-4.9927580356597900e-001</treeThreshold>
          <internalNodes>
            1 2 465 2.5000000000000000e+000 0 -1 466 196. -2 -3 467
            1.4500000000000000e+001</internalNodes>
          <leafValues>
            5.9681755304336548e-001 -7.9960489273071289e-001
            -2.5920563936233521e-001 5.5709440261125565e-002</leafValues></_>
        <_>
          <treeThreshold>-4.4107896089553833e-001</treeThreshold>
          <internalNodes>
            1 2 468 7.5000000000000000e+000 0 -1 469
            6.1500000000000000e+001 -2 -3 470 2.9500000000000000e+001</internalNodes>
          <leafValues>
            1.9734069705009460e-001 -3.3205869793891907e-001
            -3.0089020729064941e-001 5.8196846395730972e-002</leafValues></_>
        <_>
          <treeThreshold>-6.1818635463714600e-001</treeThreshold>
          <internalNodes>
            1 2 471 3.8500000000000000e+001 0 -1 472
            4.2500000000000000e+001 -2 -3 473 1.0500000000000000e+001</internalNodes>
          <leafValues>
            1.7365665733814240e-001 -1.7710739374160767e-001
            -3.0951294302940369e-001 2.8487753868103027e-001</leafValues></_>
        <_>
          <treeThreshold>-3.9475458860397339e-001</treeThreshold>
          <internalNodes>
            1 2 474 7.2500000000000000e+001 0 -1 475
            2.7500000000000000e+001 -2 -3 476 4.6500000000000000e+001</internalNodes>
          <leafValues>
            -3.9186973124742508e-002 2.2343178093433380e-001
            -5.0262057781219482e-001 5.8055132627487183e-001</leafValues></_>
        <_>
          <treeThreshold>-2.6447159051895142e-001</treeThreshold>
          <internalNodes>
            1 2 477 1.0500000000000000e+001 0 -1 478
            5.5000000000000000e+000 -2 -3 479 7.5000000000000000e+000</internalNodes>
          <leafValues>
            6.1577570438385010e-001 -3.8079822063446045e-001
            8.6363717913627625e-002 -1.6413713991641998e-001</leafValues></_>
        <_>
          <treeThreshold>-3.1443798542022705e-001</treeThreshold>
          <internalNodes>
            1 2 480 3.4500000000000000e+001 0 -1 481
            4.5500000000000000e+001 -2 -3 482 4.4500000000000000e+001</internalNodes>
          <leafValues>
            -1.8472440540790558e-001 3.9956957101821899e-001
            2.9130086302757263e-001 -1.1425326764583588e-001</leafValues></_>
        <_>
          <treeThreshold>-2.2585102915763855e-001</treeThreshold>
          <internalNodes>
            1 2 483 8.5000000000000000e+000 0 -1 484
            1.4500000000000000e+001 -2 -3 485 2.0500000000000000e+001</internalNodes>
          <leafValues>
            -4.9354955554008484e-002 3.7747484445571899e-001
            2.8608921170234680e-001 -2.6214778423309326e-001</leafValues></_>
        <_>
          <treeThreshold>-8.8805295526981354e-002</treeThreshold>
          <internalNodes>
            1 2 486 1.5500000000000000e+001 0 -1 487
            1.3500000000000000e+001 -2 -3 488 1.3500000000000000e+001</internalNodes>
          <leafValues>
            2.5505179539322853e-002 -3.4261336922645569e-001
            -2.9113200306892395e-001 1.6571129858493805e-001</leafValues></_>
        <_>
          <treeThreshold>1.1740706115961075e-001</treeThreshold>
          <internalNodes>
            1 2 489 3.5000000000000000e+000 0 -1 490
            2.5500000000000000e+001 -2 -3 491 8.3500000000000000e+001</internalNodes>
          <leafValues>
            2.0621235668659210e-001 -2.5841662287712097e-001
            -4.4036926701664925e-003 -4.1083407402038574e-001</leafValues></_>
        <_>
          <treeThreshold>2.3284303024411201e-002</treeThreshold>
          <internalNodes>
            1 2 492 9.3500000000000000e+001 0 -1 493
            7.5000000000000000e+000 -2 -3 494 3.1500000000000000e+001</internalNodes>
          <leafValues>
            9.2939034104347229e-002 -2.6072102785110474e-001
            -3.6919382214546204e-001 2.8088176250457764e-001</leafValues></_>
        <_>
          <treeThreshold>-2.3874510824680328e-001</treeThreshold>
          <internalNodes>
            1 2 495 2.5000000000000000e+000 0 -1 496
            2.1500000000000000e+001 -2 -3 497 1.5000000000000000e+000</internalNodes>
          <leafValues>
            -4.6464297175407410e-001 9.2727467417716980e-002
            -2.8944748640060425e-001 1.1541455239057541e-001</leafValues></_>
        <_>
          <treeThreshold>-6.2609851360321045e-002</treeThreshold>
          <internalNodes>
            1 2 498 4.5000000000000000e+000 0 -1 499
            4.2500000000000000e+001 -2 -3 500 4.5000000000000000e+000</internalNodes>
          <leafValues>
            6.1553342675324529e-005 -6.0692572593688965e-001
            1.7613525688648224e-001 -8.9600972831249237e-002</leafValues></_>
        <_>
          <treeThreshold>-8.2949893549084663e-003</treeThreshold>
          <internalNodes>
            1 2 501 1.2500000000000000e+001 0 -1 502
            1.5000000000000000e+000 -2 -3 503 9.2500000000000000e+001</internalNodes>
          <leafValues>
            -1.2232452630996704e-002 -5.8612984418869019e-001
            5.4314859211444855e-002 -8.8962548971176147e-001</leafValues></_>
        <_>
          <treeThreshold>7.0432044565677643e-002</treeThreshold>
          <internalNodes>
            1 2 504 1.1500000000000000e+001 0 -1 505
            9.8500000000000000e+001 -2 -3 506 9.3500000000000000e+001</internalNodes>
          <leafValues>
            7.8727036714553833e-002 -1.5984176099300385e-001
            4.6179145574569702e-001 -5.5686485767364502e-001</leafValues></_>
        <_>
          <treeThreshold>2.8770057484507561e-002</treeThreshold>
          <internalNodes>
            1 2 507 1.7500000000000000e+001 0 -1 508 172. -2 -3 509
            3.5500000000000000e+001</internalNodes>
          <leafValues>
            -9.5414614677429199e-001 1. -4.1661988943815231e-002
            2.3057854175567627e-001</leafValues></_>
        <_>
          <treeThreshold>1.4465206861495972e-001</treeThreshold>
          <internalNodes>
            1 2 510 5.0000000000000000e-001 0 -1 511
            4.5500000000000000e+001 -2 -3 512 3.3500000000000000e+001</internalNodes>
          <leafValues>
            -1.1340297758579254e-001 4.2744049429893494e-001
            1.6821892559528351e-001 -1.8288750946521759e-001</leafValues></_>
        <_>
          <treeThreshold>2.0428754389286041e-001</treeThreshold>
          <internalNodes>
            1 2 513 3.5000000000000000e+000 0 -1 514
            1.9500000000000000e+001 -2 -3 515 4.5000000000000000e+000</internalNodes>
          <leafValues>
            -8.8986068964004517e-002 -6.8254220485687256e-001
            -8.0475276708602905e-001 5.9635475277900696e-002</leafValues></_>
        <_>
          <treeThreshold>1.7691847681999207e-001</treeThreshold>
          <internalNodes>
            1 2 516 7.1500000000000000e+001 0 -1 517
            2.4500000000000000e+001 -2 -3 518 6.5000000000000000e+000</internalNodes>
          <leafValues>
            -1.1311882734298706e-001 5.7896405458450317e-001
            -2.1858115494251251e-001 4.2119260877370834e-002</leafValues></_>
        <_>
          <treeThreshold>2.8101208806037903e-001</treeThreshold>
          <internalNodes>
            1 2 519 3.9500000000000000e+001 0 -1 520
            2.5350000000000000e+002 -2 -3 521 4.5000000000000000e+000</internalNodes>
          <leafValues>
            3.5696184635162354e-001 -3.9831534028053284e-001
            -5.4662424325942993e-001 -8.9382817968726158e-003</leafValues></_>
        <_>
          <treeThreshold>3.3411815762519836e-001</treeThreshold>
          <internalNodes>
            1 2 522 1.8500000000000000e+001 0 -1 523
            1.2500000000000000e+001 -2 -3 524 2.5000000000000000e+000</internalNodes>
          <leafValues>
            4.0588808059692383e-001 -6.3077187538146973e-001
            1.5560317039489746e-001 -8.1052131950855255e-002</leafValues></_>
        <_>
          <treeThreshold>3.2204663753509521e-001</treeThreshold>
          <internalNodes>
            1 2 525 3.0150000000000000e+002 0 -1 526
            3.7500000000000000e+001 -2 -3 527 136.</internalNodes>
          <leafValues>
            4.1898526251316071e-002 -2.1680530905723572e-001
            -6.3320690393447876e-001 9.5224273204803467e-001</leafValues></_>
        <_>
          <treeThreshold>2.6770177483558655e-001</treeThreshold>
          <internalNodes>
            1 2 528 6.2500000000000000e+001 0 -1 529
            3.5000000000000000e+000 -2 -3 530 1.2850000000000000e+002</internalNodes>
          <leafValues>
            1.0121326148509979e-001 -3.1021824479103088e-001
            -1.6282875835895538e-001 2.1972645819187164e-001</leafValues></_>
        <_>
          <treeThreshold>3.2804808020591736e-001</treeThreshold>
          <internalNodes>
            1 2 531 3.4500000000000000e+001 0 -1 532
            2.5000000000000000e+000 -2 -3 533 6.2500000000000000e+001</internalNodes>
          <leafValues>
            -4.6162438392639160e-001 8.7025187909603119e-002
            -3.6277016997337341e-001 3.4973067045211792e-001</leafValues></_>
        <_>
          <treeThreshold>2.9542177915573120e-001</treeThreshold>
          <internalNodes>
            1 2 534 5.0000000000000000e-001 0 -1 535
            7.2500000000000000e+001 -2 -3 536 1.1050000000000000e+002</internalNodes>
          <leafValues>
            2.4827799201011658e-001 -3.3697324991226196e-001
            -3.2626286149024963e-002 -5.8159464597702026e-001</leafValues></_>
        <_>
          <treeThreshold>3.1344780325889587e-001</treeThreshold>
          <internalNodes>
            1 2 537 1.2850000000000000e+002 0 -1 538
            4.3500000000000000e+001 -2 -3 539 5.0000000000000000e-001</internalNodes>
          <leafValues>
            1.8026003614068031e-002 -4.1974312067031860e-001
            -2.7452924847602844e-001 1.4941871166229248e-001</leafValues></_>
        <_>
          <treeThreshold>2.9503476619720459e-001</treeThreshold>
          <internalNodes>
            1 2 540 3.4500000000000000e+001 0 -1 541
            9.4500000000000000e+001 -2 -3 542 1.2500000000000000e+001</internalNodes>
          <leafValues>
            6.2625757418572903e-003 5.6417274475097656e-001
            -6.0702306032180786e-001 1.5073255635797977e-002</leafValues></_>
        <_>
          <treeThreshold>3.0901515483856201e-001</treeThreshold>
          <internalNodes>
            1 2 543 7.1500000000000000e+001 0 -1 544
            8.0500000000000000e+001 -2 -3 545 5.2500000000000000e+001</internalNodes>
          <leafValues>
            1.3980388641357422e-002 5.3870320320129395e-001
            -3.5745826363563538e-001 2.3503300547599792e-001</leafValues></_>
        <_>
          <treeThreshold>3.2092389464378357e-001</treeThreshold>
          <internalNodes>
            1 2 546 2.1500000000000000e+001 0 -1 547
            3.5000000000000000e+000 -2 -3 548 1.3500000000000000e+001</internalNodes>
          <leafValues>
            1.5096686780452728e-001 -6.1091518402099609e-001
            1.4227741956710815e-001 -1.2500125169754028e-001</leafValues></_>
        <_>
          <treeThreshold>2.9394179582595825e-001</treeThreshold>
          <internalNodes>
            1 2 549 1.5500000000000000e+001 0 -1 550
            1.4450000000000000e+002 -2 -3 551 3.4500000000000000e+001</internalNodes>
          <leafValues>
            -1.7394350841641426e-002 -4.9758130311965942e-001
            2.2448442876338959e-001 -1.5735079348087311e-001</leafValues></_>
        <_>
          <treeThreshold>3.1474101543426514e-001</treeThreshold>
          <internalNodes>
            1 2 552 1.5000000000000000e+000 0 -1 553
            8.5000000000000000e+000 -2 -3 554 2.3500000000000000e+001</internalNodes>
          <leafValues>
            1.8432739377021790e-001 -3.7290364503860474e-001
            -4.9428909551352262e-004 3.1022492051124573e-001</leafValues></_>
        <_>
          <treeThreshold>2.3580731451511383e-001</treeThreshold>
          <internalNodes>
            1 2 555 9.3500000000000000e+001 0 -1 556 6. -2 -3 557
            5.0000000000000000e-001</internalNodes>
          <leafValues>
            7.2369605302810669e-001 -8.1675821542739868e-001
            1.4468930661678314e-001 -7.8933708369731903e-002</leafValues></_>
        <_>
          <treeThreshold>1.4960259199142456e-001</treeThreshold>
          <internalNodes>
            1 2 558 5.0000000000000000e-001 0 -1 559
            2.7500000000000000e+001 -2 -3 560 1.4500000000000000e+001</internalNodes>
          <leafValues>
            -7.3721855878829956e-001 2.7112793922424316e-001
            1.4953845739364624e-001 -8.6204715073108673e-002</leafValues></_>
        <_>
          <treeThreshold>1.2686733901500702e-001</treeThreshold>
          <internalNodes>
            1 2 561 4.5500000000000000e+001 0 -1 562
            6.5000000000000000e+000 -2 -3 563 1.3500000000000000e+001</internalNodes>
          <leafValues>
            1.2139871716499329e-001 -4.6252492070198059e-001
            3.3110463619232178e-001 -2.2735247388482094e-002</leafValues></_>
        <_>
          <treeThreshold>2.4784700572490692e-001</treeThreshold>
          <internalNodes>
            1 2 564 6.5000000000000000e+000 0 -1 565
            7.9500000000000000e+001 -2 -3 566 1.7500000000000000e+001</internalNodes>
          <leafValues>
            -9.1993159055709839e-001 1. 2.8263783454895020e-001
            -4.1935387998819351e-002</leafValues></_>
        <_>
          <treeThreshold>2.1347033977508545e-001</treeThreshold>
          <internalNodes>
            1 2 567 7.5000000000000000e+000 0 -1 568 108. -2 -3 569
            6.7500000000000000e+001</internalNodes>
          <leafValues>
            -8.9015170931816101e-002 -8.5661667585372925e-001
            -3.4376665949821472e-002 2.9533532261848450e-001</leafValues></_>
        <_>
          <treeThreshold>2.1060596406459808e-001</treeThreshold>
          <internalNodes>
            1 2 570 8.1500000000000000e+001 0 -1 571
            6.7500000000000000e+001 -2 -3 572 58.</internalNodes>
          <leafValues>
            -2.8643701225519180e-003 6.2903529405593872e-001
            4.7433212399482727e-001 -7.3338276147842407e-001</leafValues></_>
        <_>
          <treeThreshold>5.6904172897338867e-001</treeThreshold>
          <internalNodes>
            1 2 573 4.7500000000000000e+001 0 -1 574
            1.7500000000000000e+001 -2 -3 575 2.1500000000000000e+001</internalNodes>
          <leafValues>
            -9.1239148750901222e-003 3.5843575000762939e-001
            3.0348041653633118e-001 -3.9442387223243713e-001</leafValues></_>
        <_>
          <treeThreshold>5.6994038820266724e-001</treeThreshold>
          <internalNodes>
            1 2 576 5.2500000000000000e+001 0 -1 577
            6.5500000000000000e+001 -2 -3 578 1.6450000000000000e+002</internalNodes>
          <leafValues>
            8.9866435155272484e-004 7.3984271287918091e-001
            -5.2775853872299194e-001 9.5223110914230347e-001</leafValues></_>
        <_>
          <treeThreshold>5.1774030923843384e-001</treeThreshold>
          <internalNodes>
            1 2 579 7.3500000000000000e+001 0 -1 580
            2.3950000000000000e+002 -2 -3 581 4.8500000000000000e+001</internalNodes>
          <leafValues>
            -5.2200056612491608e-002 7.6488423347473145e-001
            5.2274143695831299e-001 -4.9160492420196533e-001</leafValues></_>
        <_>
          <treeThreshold>5.0368088483810425e-001</treeThreshold>
          <internalNodes>
            1 2 582 2.0500000000000000e+001 0 -1 583
            4.1500000000000000e+001 -2 -3 584 5.5000000000000000e+000</internalNodes>
          <leafValues>
            -1.4059412293136120e-002 -5.0794464349746704e-001
            2.9504236578941345e-001 -1.2347967922687531e-001</leafValues></_>
        <_>
          <treeThreshold>5.4025292396545410e-001</treeThreshold>
          <internalNodes>
            1 2 585 7.2500000000000000e+001 0 -1 586
            5.5000000000000000e+000 -2 -3 587 1.7850000000000000e+002</internalNodes>
          <leafValues>
            7.5330726802349091e-002 -2.0192229747772217e-001
            -6.3381515443325043e-002 4.8534557223320007e-001</leafValues></_>
        <_>
          <treeThreshold>5.1771777868270874e-001</treeThreshold>
          <internalNodes>
            1 2 588 2.5000000000000000e+000 0 -1 589
            1.1500000000000000e+001 -2 -3 590 6.1500000000000000e+001</internalNodes>
          <leafValues>
            3.9441570639610291e-001 -7.8923600912094116e-001
            3.0072873830795288e-001 -2.2535137832164764e-002</leafValues></_>
        <_>
          <treeThreshold>5.0572544336318970e-001</treeThreshold>
          <internalNodes>
            1 2 591 1.5000000000000000e+000 0 -1 592
            5.1500000000000000e+001 -2 -3 593 2.7500000000000000e+001</internalNodes>
          <leafValues>
            -5.5756568908691406e-001 -5.0751049071550369e-002
            1.2887781858444214e-001 -5.2268874645233154e-001</leafValues></_>
        <_>
          <treeThreshold>4.9176251888275146e-001</treeThreshold>
          <internalNodes>
            1 2 594 4.5000000000000000e+000 0 -1 595
            3.7500000000000000e+001 -2 -3 596 7.2500000000000000e+001</internalNodes>
          <leafValues>
            2.0763930678367615e-001 -5.1588255167007446e-001
            -4.0018132328987122e-001 -1.3962932862341404e-002</leafValues></_>
        <_>
          <treeThreshold>6.7144095897674561e-001</treeThreshold>
          <internalNodes>
            1 2 597 5.0000000000000000e-001 0 -1 598
            3.2500000000000000e+001 -2 -3 599 5.9500000000000000e+001</internalNodes>
          <leafValues>
            -7.2912949323654175e-001 5.4728931188583374e-001
            1.7967848479747772e-001 -8.8021494448184967e-002</leafValues></_>
        <_>
          <treeThreshold>7.3872059583663940e-001</treeThreshold>
          <internalNodes>
            1 2 600 2.4500000000000000e+001 0 -1 601
            1.1500000000000000e+001 -2 -3 602 1.1500000000000000e+001</internalNodes>
          <leafValues>
            8.2491394132375717e-003 -5.9203219413757324e-001
            -5.8010250329971313e-001 6.7279644310474396e-002</leafValues></_>
        <_>
          <treeThreshold>4.1536745429039001e-001</treeThreshold>
          <internalNodes>
            1 2 603 2.6500000000000000e+001 0 -1 604
            1.6500000000000000e+001 -2 -3 605 1.5500000000000000e+001</internalNodes>
          <leafValues>
            1.5730626881122589e-002 -3.5407441854476929e-001
            -1.2490133941173553e-001 3.7107449769973755e-001</leafValues></_>
        <_>
          <treeThreshold>3.4316304326057434e-001</treeThreshold>
          <internalNodes>
            1 2 606 1.7500000000000000e+001 0 -1 607
            2.5000000000000000e+000 -2 -3 608 6.2500000000000000e+001</internalNodes>
          <leafValues>
            2.6963612437248230e-001 -7.2204425930976868e-002
            -3.0531847476959229e-001 3.9288643002510071e-001</leafValues></_>
        <_>
          <treeThreshold>3.8904619216918945e-001</treeThreshold>
          <internalNodes>
            1 2 609 6.4500000000000000e+001 0 -1 610
            5.2500000000000000e+001 -2 -3 611 6.7500000000000000e+001</internalNodes>
          <leafValues>
            -7.1944761276245117e-001 7.4069130420684814e-001
            4.5883167535066605e-002 -7.2267192602157593e-001</leafValues></_>
        <_>
          <treeThreshold>6.5586537122726440e-001</treeThreshold>
          <internalNodes>
            1 2 612 5.0000000000000000e-001 0 -1 613
            8.5000000000000000e+000 -2 -3 614 3.7500000000000000e+001</internalNodes>
          <leafValues>
            2.6681920886039734e-001 -8.6551316082477570e-002
            -3.3477392792701721e-001 5.3093980997800827e-002</leafValues></_>
        <_>
          <treeThreshold>8.3036363124847412e-001</treeThreshold>
          <internalNodes>
            1 2 615 2.7500000000000000e+001 0 -1 616
            4.9500000000000000e+001 -2 -3 617 1.5000000000000000e+000</internalNodes>
          <leafValues>
            -5.9148585796356201e-001 3.7841665744781494e-001
            1.7449823021888733e-001 -8.7065793573856354e-002</leafValues></_>
        <_>
          <treeThreshold>7.1138274669647217e-001</treeThreshold>
          <internalNodes>
            1 2 618 2.8500000000000000e+001 0 -1 619
            1.7500000000000000e+001 -2 -3 620 5.1500000000000000e+001</internalNodes>
          <leafValues>
            2.4990264791995287e-003 4.7054252028465271e-001
            -1.9946661591529846e-001 2.2507917881011963e-001</leafValues></_>
        <_>
          <treeThreshold>7.0176261663436890e-001</treeThreshold>
          <internalNodes>
            1 2 621 2.5000000000000000e+000 0 -1 622
            3.0500000000000000e+001 -2 -3 623 5.5000000000000000e+000</internalNodes>
          <leafValues>
            -7.9596412181854248e-001 5.4326546192169189e-001
            4.2723229527473450e-001 -9.6201468259096146e-003</leafValues></_>
        <_>
          <treeThreshold>6.3582330942153931e-001</treeThreshold>
          <internalNodes>
            1 2 624 1.5000000000000000e+000 0 -1 625
            4.5000000000000000e+000 -2 -3 626 2.1500000000000000e+001</internalNodes>
          <leafValues>
            9.0886682271957397e-001 -9.2787075042724609e-001
            -2.9338893294334412e-001 5.0003986805677414e-002</leafValues></_>
        <_>
          <treeThreshold>6.5798711776733398e-001</treeThreshold>
          <internalNodes>
            1 2 627 7.4500000000000000e+001 0 -1 628
            6.6500000000000000e+001 -2 -3 629 6.1500000000000000e+001</internalNodes>
          <leafValues>
            2.2163823246955872e-002 5.2575945854187012e-001
            3.4532475471496582e-001 -2.0671424269676208e-001</leafValues></_>
        <_>
          <treeThreshold>5.0890868902206421e-001</treeThreshold>
          <internalNodes>
            1 2 630 2.6650000000000000e+002 0 -1 631
            8.5000000000000000e+000 -2 -3 632 1.9500000000000000e+001</internalNodes>
          <leafValues>
            1.4169386029243469e-001 -1.4907844364643097e-001
            -5.9934377670288086e-001 3.8359481096267700e-001</leafValues></_>
        <_>
          <treeThreshold>5.0248134136199951e-001</treeThreshold>
          <internalNodes>
            1 2 633 7.3500000000000000e+001 0 -1 634
            4.2500000000000000e+001 -2 -3 635 1.2500000000000000e+001</internalNodes>
          <leafValues>
            -6.4273565076291561e-003 3.4842672944068909e-001
            2.0977979898452759e-001 -4.4586673378944397e-001</leafValues></_>
        <_>
          <treeThreshold>6.1282050609588623e-001</treeThreshold>
          <internalNodes>
            1 2 636 1.5000000000000000e+000 0 -1 637
            2.5500000000000000e+001 -2 -3 638 3.5000000000000000e+000</internalNodes>
          <leafValues>
            6.0672712326049805e-001 -6.6993343830108643e-001
            1.1033917963504791e-001 -1.2065115571022034e-001</leafValues></_>
        <_>
          <treeThreshold>8.2078307867050171e-001</treeThreshold>
          <internalNodes>
            1 2 639 3.5500000000000000e+001 0 -1 640
            5.8500000000000000e+001 -2 -3 641 3.0500000000000000e+001</internalNodes>
          <leafValues>
            1.4475988224148750e-002 -2.9999861121177673e-001
            -1.5359453856945038e-001 2.0796255767345428e-001</leafValues></_>
        <_>
          <treeThreshold>8.9838600158691406e-001</treeThreshold>
          <internalNodes>
            1 2 642 5.5500000000000000e+001 0 -1 643
            7.5000000000000000e+000 -2 -3 644 1.8500000000000000e+001</internalNodes>
          <leafValues>
            -8.5363441705703735e-001 7.7602930366992950e-002
            2.6117563247680664e-001 -4.8237061500549316e-001</leafValues></_>
        <_>
          <treeThreshold>9.4518631696701050e-001</treeThreshold>
          <internalNodes>
            1 2 645 1.6500000000000000e+001 0 -1 646
            3.3500000000000000e+001 -2 -3 647 3.5000000000000000e+000</internalNodes>
          <leafValues>
            8.7115392088890076e-002 -6.8848174810409546e-001
            -6.7141389846801758e-001 4.6800319105386734e-002</leafValues></_>
        <_>
          <treeThreshold>1.0266014337539673e+000</treeThreshold>
          <internalNodes>
            1 2 648 1.6500000000000000e+001 0 -1 649
            3.5000000000000000e+000 -2 -3 650 5.5000000000000000e+000</internalNodes>
          <leafValues>
            -4.2603904008865356e-001 8.1415161490440369e-002
            1.9786705076694489e-001 -3.9084416627883911e-001</leafValues></_>
        <_>
          <treeThreshold>1.1922420263290405e+000</treeThreshold>
          <internalNodes>
            1 2 651 3.6500000000000000e+001 0 -1 652
            1.8500000000000000e+001 -2 -3 653 1.2500000000000000e+001</internalNodes>
          <leafValues>
            -1.3156484067440033e-001 1.7370642721652985e-001
            5.8723127841949463e-001 -3.0359318852424622e-001</leafValues></_>
        <_>
          <treeThreshold>1.0590602159500122e+000</treeThreshold>
          <internalNodes>
            1 2 654 1.3500000000000000e+001 0 -1 655
            1.8500000000000000e+001 -2 -3 656 3.4500000000000000e+001</internalNodes>
          <leafValues>
            -8.5786052048206329e-002 3.5500967502593994e-001
            -2.0040042698383331e-001 3.0090555548667908e-001</leafValues></_>
        <_>
          <treeThreshold>1.0422714948654175e+000</treeThreshold>
          <internalNodes>
            1 2 657 4.3500000000000000e+001 0 -1 658
            2.9500000000000000e+001 -2 -3 659 5.0350000000000000e+002</internalNodes>
          <leafValues>
            -1.6788698732852936e-002 3.5160061717033386e-001
            6.9716066122055054e-001 -6.5447169542312622e-001</leafValues></_>
        <_>
          <treeThreshold>1.2142798900604248e+000</treeThreshold>
          <internalNodes>
            1 2 660 1.5000000000000000e+000 0 -1 661
            9.1500000000000000e+001 -2 -3 662 2.5000000000000000e+000</internalNodes>
          <leafValues>
            -6.7075132392346859e-003 -8.5933834314346313e-001
            3.8854837417602539e-001 -1.1846913956105709e-002</leafValues></_>
        <_>
          <treeThreshold>1.2445952892303467e+000</treeThreshold>
          <internalNodes>
            1 2 663 2.1500000000000000e+001 0 -1 664
            1.8500000000000000e+001 -2 -3 665 4.3500000000000000e+001</internalNodes>
          <leafValues>
            1.3240972533822060e-002 -3.4181433916091919e-001
            -5.3498619794845581e-001 2.2215548157691956e-001</leafValues></_>
        <_>
          <treeThreshold>1.3328579664230347e+000</treeThreshold>
          <internalNodes>
            1 2 666 1.8500000000000000e+001 0 -1 667
            3.2500000000000000e+001 -2 -3 668 20.</internalNodes>
          <leafValues>
            -1.1120292544364929e-001 1.3190381228923798e-001
            7.1481817960739136e-001 -6.6405016183853149e-001</leafValues></_>
        <_>
          <treeThreshold>1.4547915458679199e+000</treeThreshold>
          <internalNodes>
            1 2 669 1.0450000000000000e+002 0 -1 670
            5.5000000000000000e+000 -2 -3 671 1.0500000000000000e+001</internalNodes>
          <leafValues>
            1.7070965468883514e-001 -7.4946835637092590e-002
            -7.2169625759124756e-001 -7.2806313633918762e-002</leafValues></_>
        <_>
          <treeThreshold>1.4166824817657471e+000</treeThreshold>
          <internalNodes>
            1 2 672 5.2500000000000000e+001 0 -1 673
            3.1500000000000000e+001 -2 -3 674 2.3500000000000000e+001</internalNodes>
          <leafValues>
            3.4872088581323624e-002 -5.6115382909774780e-001
            2.5114190578460693e-001 -3.8109026849269867e-002</leafValues></_>
        <_>
          <treeThreshold>1.2437231540679932e+000</treeThreshold>
          <internalNodes>
            1 2 675 6.5000000000000000e+000 0 -1 676
            4.0500000000000000e+001 -2 -3 677 8.6500000000000000e+001</internalNodes>
          <leafValues>
            -1.5518961846828461e-001 1.9471286237239838e-001
            1.2187455594539642e-001 -3.7228706479072571e-001</leafValues></_>
        <_>
          <treeThreshold>1.2595899105072021e+000</treeThreshold>
          <internalNodes>
            1 2 678 3.5000000000000000e+000 0 -1 679
            1.7500000000000000e+001 -2 -3 680 1.5000000000000000e+000</internalNodes>
          <leafValues>
            -6.4481824636459351e-002 -5.7056087255477905e-001
            5.0346291065216064e-001 1.5866721048951149e-002</leafValues></_>
        <_>
          <treeThreshold>1.3174701929092407e+000</treeThreshold>
          <internalNodes>
            1 2 681 3.5000000000000000e+000 0 -1 682 45. -2 -3 683
            5.5000000000000000e+000</internalNodes>
          <leafValues>
            6.4606392383575439e-001 -9.0616858005523682e-001
            -2.5191184878349304e-001 5.7880368083715439e-002</leafValues></_>
        <_>
          <treeThreshold>1.4621931314468384e+000</treeThreshold>
          <internalNodes>
            1 2 684 5.0000000000000000e-001 0 -1 685
            1.2500000000000000e+001 -2 -3 686 3.4500000000000000e+001</internalNodes>
          <leafValues>
            3.9167928695678711e-001 -4.1430714726448059e-001
            -1.4697070419788361e-001 1.4472289383411407e-001</leafValues></_>
        <_>
          <treeThreshold>1.4201335906982422e+000</treeThreshold>
          <internalNodes>
            1 2 687 7.7500000000000000e+001 0 -1 688
            4.1500000000000000e+001 -2 -3 689 5.3500000000000000e+001</internalNodes>
          <leafValues>
            -4.2059596627950668e-002 2.3757795989513397e-001
            -2.1349418908357620e-002 -7.5539147853851318e-001</leafValues></_>
        <_>
          <treeThreshold>1.4346888065338135e+000</treeThreshold>
          <internalNodes>
            1 2 690 4.8500000000000000e+001 0 -1 691
            4.7500000000000000e+001 -2 -3 692 1.9500000000000000e+001</internalNodes>
          <leafValues>
            -4.5228469371795654e-001 4.7279876470565796e-001
            -3.4040442109107971e-001 1.4555281028151512e-002</leafValues></_>
        <_>
          <treeThreshold>1.5605082511901855e+000</treeThreshold>
          <internalNodes>
            1 2 693 4.9500000000000000e+001 0 -1 694
            8.5000000000000000e+000 -2 -3 695 3.5500000000000000e+001</internalNodes>
          <leafValues>
            -1.4456024765968323e-001 2.0683375000953674e-001
            -3.2665935158729553e-001 1.3716389238834381e-001</leafValues></_>
        <_>
          <treeThreshold>1.4071880578994751e+000</treeThreshold>
          <internalNodes>
            1 2 696 1.7850000000000000e+002 0 -1 697
            1.3500000000000000e+001 -2 -3 698 1.6500000000000000e+001</internalNodes>
          <leafValues>
            3.6425068974494934e-001 -2.7249595522880554e-001
            -3.7125852704048157e-001 2.2461244836449623e-002</leafValues></_>
        <_>
          <treeThreshold>1.3685638904571533e+000</treeThreshold>
          <internalNodes>
            1 2 699 4.1500000000000000e+001 0 -1 700
            4.5000000000000000e+000 -2 -3 701 3.8500000000000000e+001</internalNodes>
          <leafValues>
            2.0183432102203369e-001 -2.1440558135509491e-001
            -6.1688578128814697e-001 1.7028510570526123e-001</leafValues></_>
        <_>
          <treeThreshold>1.5287573337554932e+000</treeThreshold>
          <internalNodes>
            1 2 702 5.2500000000000000e+001 0 -1 703
            1.3500000000000000e+001 -2 -3 704 1.0500000000000000e+001</internalNodes>
          <leafValues>
            -3.2553902268409729e-001 1.6019335389137268e-001
            -5.1088678836822510e-001 -3.2873321324586868e-002</leafValues></_>
        <_>
          <treeThreshold>1.6092436313629150e+000</treeThreshold>
          <internalNodes>
            1 2 705 2.5000000000000000e+000 0 -1 706
            1.5000000000000000e+000 -2 -3 707 5.0000000000000000e-001</internalNodes>
          <leafValues>
            4.5913922786712646e-001 -7.9279249906539917e-001
            1.6859714686870575e-001 -6.1980281025171280e-002</leafValues></_>
        <_>
          <treeThreshold>1.4325492382049561e+000</treeThreshold>
          <internalNodes>
            1 2 708 4.5000000000000000e+000 0 -1 709
            1.6500000000000000e+001 -2 -3 710 6.5000000000000000e+000</internalNodes>
          <leafValues>
            6.9496907293796539e-002 -2.3266963660717010e-001
            -3.0140194296836853e-001 2.8992637991905212e-001</leafValues></_>
        <_>
          <treeThreshold>1.7021756172180176e+000</treeThreshold>
          <internalNodes>
            1 2 711 2.0500000000000000e+001 0 -1 712
            2.3500000000000000e+001 -2 -3 713 1.9500000000000000e+001</internalNodes>
          <leafValues>
            -1.2778925709426403e-002 -4.3577483296394348e-001
            2.6962637901306152e-001 -8.7147146463394165e-002</leafValues></_>
        <_>
          <treeThreshold>1.6176812648773193e+000</treeThreshold>
          <internalNodes>
            1 2 714 2.3500000000000000e+001 0 -1 715
            9.5500000000000000e+001 -2 -3 716 6.2500000000000000e+001</internalNodes>
          <leafValues>
            -8.4494292736053467e-002 2.2243943810462952e-001
            8.9284902811050415e-001 8.3574421703815460e-002</leafValues></_>
        <_>
          <treeThreshold>1.7714043855667114e+000</treeThreshold>
          <internalNodes>
            1 2 717 1.1250000000000000e+002 0 -1 718
            3.5000000000000000e+000 -2 -3 719 27.</internalNodes>
          <leafValues>
            1.5372313559055328e-001 -7.1195602416992188e-002
            -8.5657751560211182e-001 6.4102643728256226e-001</leafValues></_>
        <_>
          <treeThreshold>1.8036768436431885e+000</treeThreshold>
          <internalNodes>
            1 2 720 2.5000000000000000e+000 0 -1 721
            4.4500000000000000e+001 -2 -3 722 2.6500000000000000e+001</internalNodes>
          <leafValues>
            -8.9087390899658203e-001 1. 3.2272424548864365e-002
            -4.7072446346282959e-001</leafValues></_>
        <_>
          <treeThreshold>1.8036412000656128e+000</treeThreshold>
          <internalNodes>
            1 2 723 7.5000000000000000e+000 0 -1 724
            6.7500000000000000e+001 -2 -3 725 8.6500000000000000e+001</internalNodes>
          <leafValues>
            -9.5255948603153229e-002 -7.4868392944335938e-001
            4.1951629519462585e-001 -3.5675446270033717e-005</leafValues></_>
        <_>
          <treeThreshold>1.6590404510498047e+000</treeThreshold>
          <internalNodes>
            1 2 726 1.1500000000000000e+001 0 -1 727
            3.0500000000000000e+001 -2 -3 728 2.5000000000000000e+000</internalNodes>
          <leafValues>
            9.2852173838764429e-004 -6.3107573986053467e-001
            -1.4460077881813049e-001 1.1710198968648911e-001</leafValues></_>
        <_>
          <treeThreshold>1.7808159589767456e+000</treeThreshold>
          <internalNodes>
            1 2 729 6.5000000000000000e+000 0 -1 730
            5.1500000000000000e+001 -2 -3 731 5.4500000000000000e+001</internalNodes>
          <leafValues>
            -1.7143136262893677e-001 1.2177561223506927e-001
            -2.8514981269836426e-002 -5.9479981660842896e-001</leafValues></_>
        <_>
          <treeThreshold>1.9823486804962158e+000</treeThreshold>
          <internalNodes>
            1 2 732 7.5000000000000000e+000 0 -1 733
            3.4500000000000000e+001 -2 -3 734 5.5000000000000000e+000</internalNodes>
          <leafValues>
            -4.2090281844139099e-001 3.3044525980949402e-001
            -4.5719039440155029e-001 -2.1299142390489578e-002</leafValues></_>
        <_>
          <treeThreshold>1.8675976991653442e+000</treeThreshold>
          <internalNodes>
            1 2 735 3.5000000000000000e+000 0 -1 736
            2.1500000000000000e+001 -2 -3 737 7.8500000000000000e+001</internalNodes>
          <leafValues>
            -1.8951468169689178e-002 3.5154241323471069e-001
            -2.0550864934921265e-001 1.4564654231071472e-001</leafValues></_>
        <_>
          <treeThreshold>1.7278789281845093e+000</treeThreshold>
          <internalNodes>
            1 2 738 2.5000000000000000e+000 0 -1 739
            7.5000000000000000e+000 -2 -3 740 1.5000000000000000e+000</internalNodes>
          <leafValues>
            -1.3531152904033661e-001 2.9980221390724182e-001
            2.3185855150222778e-001 -1.7787373065948486e-001</leafValues></_>
        <_>
          <treeThreshold>1.7316216230392456e+000</treeThreshold>
          <internalNodes>
            1 2 741 1.7500000000000000e+001 0 -1 742
            9.5000000000000000e+000 -2 -3 743 9.5000000000000000e+000</internalNodes>
          <leafValues>
